， 0.069758 -0.190054 0.298034 -0.190608 -0.149221 0.105861 -0.655564 -0.430371 0.145492 0.263840 -0.169552 -0.006950 -0.358730 -0.402497 -0.909752 0.111732 0.071747 -0.262736 -0.033699 -0.517517 0.373118 -0.086462 -0.612781 -0.945189 0.523835 0.562601 -0.068439 0.180087 0.213991 0.091879 -0.283510 0.054795 0.149372 -0.073868 0.357549 0.611425 0.321247 -0.187671 0.083441 0.048060 -0.248366 -0.029444 -0.382297 -0.589177 -0.357179 -0.110587 0.220251 0.002311 -0.288236 -0.236369 -0.096554 0.151692 0.261036 0.507362 -0.322692 0.128563 -0.367529 -0.116440 0.521001 0.352419 -0.062753 0.166445 -0.202850 0.222867 0.334625 -0.667221 0.372654 -0.391761 0.158294 -0.116592 0.050682 -0.191311 0.180597 0.855357 -0.027279 -0.034195 0.589586 -0.058824 -0.040895 -0.028824 -0.547613 -0.659075 0.304081 -0.235189 -0.062266 -0.002758 0.626145 0.157826 -0.075652 -0.010889 -0.159936 0.031612 0.062837 0.313954 -0.752150 0.499319 0.083180 -0.286733 -0.055735 0.132686
的 -0.210766 -0.163187 0.037440 0.005974 0.246941 0.173436 -0.588943 -0.366660 -0.285362 0.106194 -0.095310 -0.219905 -0.175631 -0.353300 -0.861990 -0.106605 0.225776 -0.223186 -0.254888 -0.336319 0.439360 0.103825 -0.373773 -0.901196 0.304652 0.068272 0.087849 0.023871 0.222626 0.059217 -0.226491 -0.258040 -0.027629 -0.054957 0.514207 0.575613 0.231914 0.176334 0.278228 -0.046917 -0.253712 0.229452 -0.254000 -0.496323 -0.363524 -0.002721 0.294254 0.037397 0.092874 -0.164275 0.103622 -0.076347 0.354593 0.488249 -0.768145 -0.023671 -0.275797 -0.065881 0.435529 0.360746 -0.096024 0.085821 -0.327522 -0.173931 0.403865 -0.795725 0.397460 -0.353835 0.098135 -0.420166 -0.431413 -0.130687 0.514278 0.601777 -0.013408 -0.033060 0.451656 0.306577 -0.276195 -0.128660 -0.521127 -0.534760 0.295012 0.024256 0.260079 0.118804 0.424594 0.119419 0.180318 -0.265356 -0.136083 0.312198 -0.340380 0.632429 -0.603917 0.127484 0.335183 -0.196221 -0.151021 0.305776
。 -0.004074 -0.392660 0.512011 0.064587 -0.214396 0.101941 -0.455725 -0.507701 -0.010395 0.243090 -0.029566 -0.351728 -0.243614 -0.580525 -0.701129 0.019352 0.222498 -0.297365 -0.016820 -0.587122 0.173840 -0.185489 -0.180266 -0.795684 0.306148 0.083348 -0.065167 -0.069668 0.258176 0.115661 -0.223284 0.168887 -0.036909 -0.092730 0.279174 0.346096 0.177321 0.094267 -0.064198 -0.159067 -0.267573 0.100105 -0.056931 -0.497944 -0.339039 0.099348 0.099491 0.120290 -0.172025 -0.416099 -0.085069 -0.041550 0.224651 0.304009 -0.201060 0.041014 -0.437738 -0.214674 0.749345 0.261726 -0.146753 0.142829 -0.247752 0.079723 0.451207 -0.676637 0.201220 -0.251221 0.199506 -0.145889 -0.061797 -0.398462 0.234536 0.966609 0.121034 -0.193884 0.535753 -0.362934 0.014500 -0.033469 -0.670034 -0.922179 0.706607 -0.308876 -0.033537 0.073397 0.451986 0.204450 -0.009958 -0.172201 0.008445 0.372355 -0.218233 0.140114 -0.679761 0.675848 0.392063 -0.062756 0.166817 0.214850
一 -0.098700 0.028109 -0.112716 0.282751 -0.101990 0.493828 -0.921057 -0.536303 -0.053187 -0.152625 -0.265180 -0.260125 -0.164759 -0.301356 -1.099258 -0.051283 0.439497 -0.772904 -0.151753 -0.695696 0.160658 -0.242785 0.154472 -0.843613 0.438755 0.455339 -0.127096 -0.206383 0.455543 0.090727 -0.159743 -0.009653 0.307671 -0.297573 -0.017458 0.877517 -0.099428 -0.401082 -0.034497 -0.520285 -0.010580 0.094113 -0.577704 -0.554633 -0.561605 -0.209831 0.340048 -0.018314 0.323393 0.273089 -0.091658 0.104189 0.115813 0.384152 -0.377612 0.275398 -0.126464 -0.067116 0.080146 0.463540 -0.052477 -0.170020 0.358041 -0.081235 0.267084 -0.661782 0.491062 -0.451473 -0.004465 -0.087443 -0.048466 -0.076556 0.622181 0.514543 0.258140 -0.467576 0.749693 -0.174011 -0.323854 -0.329982 -0.444440 -0.879268 -0.175860 -0.297434 0.660130 0.071373 0.725801 0.046300 -0.323265 -0.147790 0.052923 0.053354 -0.521269 0.642928 -0.368981 0.349932 0.235163 0.032527 0.259744 0.134587
在 0.220487 -0.138327 0.046927 -0.188244 -0.019889 0.452745 -0.458489 -0.274079 0.357315 -0.059903 -0.259874 -0.024942 -0.021185 0.168589 -0.495601 0.070916 0.408225 -0.255592 -0.100171 0.068008 0.377792 -0.081877 -0.371567 -0.699524 -0.083969 0.459218 -0.350774 0.264179 0.490594 0.534340 -0.181392 0.138173 0.073694 0.069372 -0.115625 0.142711 0.041668 -0.547817 -0.409064 -0.068961 0.078807 0.158292 -0.270743 -0.318558 -0.101548 0.103249 -0.144709 0.275086 -0.227964 -0.375406 -0.195984 0.237877 0.517374 0.569783 -0.489386 -0.305006 -0.527201 0.224919 0.274711 0.137790 -0.028721 0.052031 -0.135283 0.159246 0.650298 -1.118159 0.678561 -0.405904 0.188017 -0.434217 -0.045250 -0.441289 -0.161419 0.741397 0.157061 -0.321108 0.564806 0.131606 0.027731 -0.189019 -0.276853 -0.368417 -0.075735 -0.195772 0.278538 0.070248 0.784773 0.139533 0.170301 0.023689 -0.027045 0.250386 0.046838 0.441709 -0.858341 0.511311 0.200633 -0.150295 0.092028 -0.008515
0 0.569484 -0.441123 -0.342815 0.285124 -0.129142 -0.467838 -0.755747 -1.181036 0.888274 0.295325 -0.015031 0.473773 -0.551225 -0.831056 -1.001284 0.373444 0.471530 0.143041 -0.844646 -0.142009 0.289927 0.361405 0.106916 -0.544968 -0.255474 -0.321555 0.541654 0.521593 0.216415 0.323561 0.441730 0.234780 0.277377 0.157470 0.312701 -0.053135 0.675782 0.388494 -0.743290 0.788113 -0.184472 -0.440053 -0.126368 -1.205469 0.195414 1.199674 -0.213971 0.352136 -0.217175 -0.558529 0.152720 0.205884 0.332453 -0.103234 -0.095848 0.039262 0.101254 0.199134 0.027903 -0.223359 0.200454 -0.277365 0.401855 0.537743 -0.013204 -0.613201 0.365764 0.051990 1.017213 -0.360006 -0.328646 -0.838740 0.006783 0.268993 0.389750 -0.941856 -0.108093 0.357653 0.544915 0.641153 0.028156 -1.160962 0.475928 -0.343580 0.887557 -0.226598 0.695560 -0.077617 0.021054 0.512667 -0.155686 -0.213209 0.063574 0.987156 -0.315517 0.344957 -0.252647 -0.033243 0.008544 0.577689
是 0.180768 -0.066736 -0.402863 -0.218542 -0.080343 0.282328 -0.347710 -0.438463 -0.343167 0.104084 0.020609 -0.398725 -0.310786 -0.191347 -1.088142 -0.249594 0.341750 -0.176375 0.067077 -0.187353 0.353955 -0.214268 -0.510107 -1.143992 0.234747 0.850951 -0.386104 -0.380981 -0.087819 -0.027535 -0.188019 -0.499184 0.087544 0.062528 0.419187 0.497021 0.432862 -0.331021 0.377237 -0.257386 -0.096071 0.073457 -0.704883 -0.467339 -0.278106 -0.049443 0.311376 0.184628 -0.113725 0.019416 -0.076853 0.297479 0.140505 0.484449 -0.153936 0.204001 0.129341 -0.344508 0.191543 0.332514 0.210741 0.234303 0.366615 -0.389090 0.397593 -0.917096 0.613505 -0.657855 0.246231 -0.367207 -0.478454 -0.559121 -0.024581 0.498096 -0.106243 -0.503566 0.985451 0.049853 -0.479691 -0.204011 -0.616984 -0.154077 0.003139 -0.535630 -0.027418 -0.133517 0.575887 0.090900 -0.225146 -0.294930 0.109819 0.309537 0.002121 0.577247 -0.090772 0.409491 -0.209197 0.042003 0.021224 0.147903
》 0.139231 -0.628894 0.366106 0.499701 0.525425 0.846746 -0.779672 -0.505622 -0.889664 -0.087228 0.124954 -0.424091 -0.269612 -1.189120 -0.332801 -0.653621 0.052570 0.152443 -0.171821 0.555564 0.621969 0.276398 -0.488506 0.452334 -0.617064 0.001730 -1.152496 0.733503 -0.315783 0.673558 -0.128591 0.314994 0.327809 0.240954 0.807335 -0.605865 0.381594 0.638352 -0.201527 0.632141 0.143604 -0.258824 -0.681830 0.232286 0.097687 -0.420895 -0.306308 -0.574518 0.267756 0.465341 -0.221717 -0.534930 0.080165 -0.118774 -0.540283 0.300384 -0.393767 0.199024 -0.093544 1.065766 -0.405291 0.904030 0.017681 -0.251801 0.505124 -0.634500 0.637902 -0.521495 0.275993 -0.354853 -0.227309 -0.900058 1.244315 0.553302 -0.615861 -0.138913 0.350670 0.903153 0.341190 0.436402 0.197125 -0.317707 0.456524 -0.289090 1.067108 0.175043 1.083783 -0.253010 -0.091156 0.310770 0.008658 0.501385 -0.423685 0.587953 -0.250105 -0.248238 0.538151 -0.447298 0.117028 0.044865
《 0.176647 -0.524512 0.235026 0.367392 0.131788 0.339399 -0.654747 -0.285676 -1.091561 -0.402871 0.070032 -0.207386 -0.258825 -1.007587 -0.474707 -0.434356 0.253860 0.371935 0.076914 0.476125 0.634623 0.102457 -0.310254 -0.086569 -0.603742 -0.194628 -0.838404 0.926748 -0.444785 0.786499 0.083356 0.040777 0.085306 -0.277608 0.799210 -0.284632 0.015572 0.176889 -0.105963 0.490586 -0.359234 0.281967 -0.799657 -0.165060 0.254653 -0.176102 -0.242983 0.121427 0.065169 0.658725 -0.418816 -0.376598 -0.160651 -0.010488 -0.889706 0.157432 -0.313200 0.566646 -0.278950 1.206841 -0.546396 1.213631 0.128535 -0.264587 0.177654 -0.733037 0.735527 -0.653189 0.052696 -0.170529 -0.169229 -1.001898 0.979315 0.080636 -0.617793 0.029573 0.737499 1.009694 0.659658 0.284539 -0.049255 -0.121034 0.173651 -0.469866 0.871710 0.093887 1.176937 -0.613361 -0.251982 0.577361 0.046959 0.776075 -0.221962 0.394337 -0.202996 -0.145457 0.531703 -0.237918 -0.044715 0.064762
行 0.649952 -0.980640 0.188553 -0.232696 0.038477 0.530359 -0.546779 -0.489182 0.374424 0.488031 0.233935 -0.356224 0.355374 0.692215 -1.152379 0.556565 -0.003097 -0.274166 -0.412106 -0.752759 -0.386002 -0.152849 0.110274 -0.364500 0.533590 0.716362 -0.435068 -0.010495 0.391054 0.105519 -0.633939 0.488828 -0.464614 0.485183 -0.057651 0.272800 0.084341 -0.442313 0.366091 0.346239 0.046833 0.650322 0.051438 -1.152964 -0.408647 -0.435759 0.490121 0.393471 -1.088738 -0.417783 -0.482080 -0.057566 0.149718 -0.327617 -0.790107 -0.436031 -0.595950 0.636144 0.605232 -0.314113 -0.369760 -0.050190 -0.525419 0.549430 0.350626 -0.418490 0.588337 0.400215 0.557249 -0.239657 0.924308 -0.486706 0.518087 0.128978 0.471092 0.024870 0.600232 -0.170522 0.311242 0.240732 0.484417 -0.910943 0.845471 0.328918 0.563876 0.917771 0.990647 -0.154122 0.185609 0.144715 0.131065 0.139443 0.535091 0.637975 -0.349775 -0.246554 0.283697 -0.031910 0.011327 1.220196
1 0.554662 -0.299032 -0.265555 0.158200 -0.253437 -0.172466 -0.962294 -0.720216 0.531819 0.541326 0.117509 0.638076 -0.272088 -0.707428 -1.060991 0.244275 0.349542 0.018475 -0.615342 -0.332571 0.692547 0.562710 0.089234 -0.585155 -0.425347 -0.288368 0.406821 0.192674 0.501855 0.635497 0.812569 0.364275 0.443453 0.145824 0.306219 -0.135865 0.612896 0.109521 -0.797452 0.891585 0.029725 -0.421237 -0.023805 -0.563404 0.002946 1.030164 -0.245303 0.147052 -0.018757 -0.301631 -0.050706 0.219429 0.358137 0.057838 0.123958 0.129003 -0.083418 0.099743 0.282388 -0.384604 0.215886 0.034338 0.351092 0.605127 0.400637 -0.745836 -0.201102 0.274630 0.724495 -0.321117 -0.066579 -0.669354 -0.099106 0.513163 0.734544 -0.871065 -0.157844 0.493551 0.532280 0.685910 -0.042320 -0.958586 0.455369 -0.664591 0.910442 -0.084130 0.786746 0.245109 -0.292672 0.748389 -0.234721 -0.236345 -0.572075 0.953082 -0.269617 0.430122 -0.226774 -0.596460 0.113395 0.410965
中 0.221285 -0.289654 0.268486 -0.033912 0.212379 0.160997 -0.928139 -0.487899 0.198660 0.541986 -0.277335 -0.023320 0.281307 -0.220884 -0.588712 0.166111 0.314863 -0.479327 -0.735597 -0.217262 0.248510 0.164426 -0.712003 -0.788299 -0.218346 0.398950 -0.167450 0.094386 0.488569 0.103441 0.128934 0.118881 0.532517 0.087817 -0.141883 0.335093 0.328477 -0.305026 -0.111688 0.671157 -0.589553 0.281808 -0.159429 -0.524448 -0.290800 0.214543 0.279110 0.831082 -0.496793 -0.512846 -0.359286 -0.332114 0.221278 -0.062877 -0.316555 0.092139 -0.686690 0.377202 -0.121061 -0.567064 -0.625695 0.265961 -0.479604 -0.080907 0.535746 -0.548570 -0.193457 -0.580209 0.153154 -0.229821 -0.037593 -0.559437 0.071039 0.369913 -0.256819 0.158097 1.013410 -0.252408 0.073073 -0.003442 -0.436866 -0.565004 -0.287389 0.181953 0.760070 0.119664 0.727776 0.016923 0.386049 -0.441295 0.082480 0.741512 0.038314 0.657783 -0.845381 0.255704 -0.402548 -0.520555 -0.289561 0.221705
2 0.343243 -0.626122 -0.073420 -0.192074 0.091359 -0.410278 -0.636672 -0.972900 0.536862 0.328094 0.250054 0.712791 -0.287353 -1.012791 -1.072234 0.240488 0.535246 0.093972 -0.617782 -0.030205 0.534895 0.540119 -0.069960 -0.760243 -0.561780 -0.213802 0.164151 0.672691 0.060469 0.640289 0.509690 -0.012790 0.544995 0.751940 0.251579 -0.057397 0.487644 0.448538 -0.617895 0.861422 0.116375 -0.527960 -0.068217 -0.560178 0.139895 1.016359 -0.296802 0.301427 -0.492430 -0.414685 0.017943 -0.402225 0.385545 0.626214 -0.024381 0.139324 -0.114943 -0.102866 0.205441 -0.105323 -0.111369 -0.102687 0.525285 0.114852 0.323901 -1.107247 -0.016285 0.409735 0.749841 -0.436034 -0.033482 -0.860034 0.143649 0.684725 0.313878 -0.996195 0.202326 0.478550 0.576123 0.757993 0.167071 -0.826059 0.367795 -0.374642 0.928535 0.154946 0.587958 0.021639 -0.231088 0.686674 -0.203111 -0.229937 -0.165919 1.021237 -0.150000 -0.058002 0.181089 -0.481329 0.088613 0.018578
、 -0.652055 -0.924122 0.184549 0.093061 0.338181 0.489460 0.221152 -0.846825 -0.127795 -0.164415 -0.061804 -0.048401 -0.127073 0.246459 -0.969566 -0.012804 -0.043342 -0.481240 -1.285531 0.556252 0.433739 -0.170184 -0.985127 -0.169946 -0.392552 0.237260 -0.919236 0.016794 -0.306057 0.125363 0.474310 0.373068 -0.636022 -0.409629 0.032217 0.102981 0.639635 0.216669 0.129293 0.161090 -0.360310 -0.158371 -0.040515 -0.557528 -0.115331 -0.251132 0.385728 0.400563 -0.851271 -0.502924 -0.360200 -0.566784 0.348149 0.004030 -0.482715 -0.319594 -0.226238 0.235447 0.017417 -0.112240 0.032518 0.240454 -0.408387 0.278398 0.110176 -0.136219 0.354046 -0.022868 -0.138406 0.272377 -0.339989 -0.252950 0.747952 0.042587 -0.233713 0.398499 0.540185 0.321815 -0.004942 0.574976 0.023458 -0.211926 0.552386 0.212652 1.099845 -0.087179 0.017981 0.277127 0.535014 -0.028790 0.055219 -0.057350 -0.085402 0.752271 -0.110131 -0.494139 -0.141763 -0.863363 -0.013357 0.502476
有 0.143947 -0.035974 -0.586004 -0.104080 0.068623 -0.044287 -0.742420 -0.153802 -0.013874 0.251689 0.019566 -0.136624 -0.195212 -0.222936 -0.951806 0.364953 0.337858 -0.568427 -0.247620 -0.362562 0.161862 -0.070438 -0.351384 -0.817083 0.115777 0.646761 -0.515334 0.112942 -0.248760 -0.376914 -0.436193 -0.384171 0.253263 -0.118322 0.352271 0.723935 -0.042648 0.208871 0.302136 0.466682 -0.057017 0.152384 -0.229457 -1.030200 -0.789017 0.136673 0.470754 -0.072825 -0.092153 -0.092879 -0.248282 0.170841 0.875010 0.515207 0.067294 0.010953 -0.207192 -0.454662 0.173409 -0.286835 -0.004157 -0.024451 -0.323886 -0.247408 0.439140 -1.103999 0.580710 -0.208039 0.347505 -0.037754 -0.459616 -0.083864 0.455543 1.015142 -0.081583 -0.365217 0.416131 0.245278 -0.182811 -0.723880 -0.244895 -0.814966 0.185089 -0.112685 0.201562 0.025011 0.201355 0.382358 -0.465030 -0.252024 -0.134841 0.223144 0.156783 -0.118206 -0.193624 0.209654 -0.156166 -0.414491 0.276954 -0.470181
国 0.206267 -0.432892 0.392846 -0.518202 -0.063975 -0.081665 -0.598651 -0.917383 0.247045 0.013419 0.004005 -0.020343 -0.105760 -0.227708 -0.710450 0.470071 0.744373 -0.525378 -0.799427 -0.130769 0.889735 0.446673 -0.755155 -0.186984 -0.527256 0.161359 -0.309101 0.388423 0.190526 0.517772 0.086866 -0.637894 0.243646 0.042977 0.013151 0.223852 -0.106191 -0.581861 -0.189607 0.771581 -0.221840 0.239393 -0.413361 -0.187088 0.018712 0.258870 0.231459 0.408278 -0.310324 -0.332691 -0.558913 -0.370927 0.195899 1.313592 -0.236146 -0.146958 -0.215771 1.039969 0.529994 -0.429723 -1.172575 -0.230523 0.286957 -0.177080 0.500441 -0.311163 -0.107759 -0.221176 0.338834 0.589079 0.388247 -0.136286 -0.010059 -0.105094 -0.014682 0.223769 1.174515 0.159983 -0.423931 -0.391355 -0.700073 -0.113016 -0.046609 -0.136871 0.615306 -0.043379 0.808509 0.591084 0.257377 -0.951860 -0.294852 0.528199 0.292811 0.415184 -0.932102 -0.873122 -0.360792 -0.384329 -0.211228 0.392082
了 0.033084 -0.033960 -0.045563 0.112396 -0.368166 -0.092135 -0.569415 -0.544533 -0.461481 0.412728 0.036888 0.140081 -0.794925 -0.255952 -0.244184 0.189057 0.483269 -0.346756 -0.583166 -0.532436 0.332611 -0.326756 -0.314544 -1.164181 0.167703 0.170289 0.081721 -0.008716 0.400092 -0.460108 0.416434 0.015229 -0.071115 -0.318305 -0.038190 0.506963 -0.161166 -0.099202 0.022180 -0.244014 -0.111979 0.455248 -0.347478 -0.167028 -0.025290 0.073408 -0.123869 -0.037190 -0.481092 0.011682 -0.308260 0.312501 0.043110 0.747974 -0.444691 -0.421828 -0.189369 0.167619 0.867562 0.069734 -0.535611 0.626358 0.159007 0.337349 0.458823 -0.605909 0.421190 -0.472396 0.079635 -0.418801 -0.126498 -0.250868 0.655208 0.333215 -0.527892 -0.285799 0.173945 -0.201757 0.388425 -0.380107 0.358872 -1.257113 0.110957 0.219826 0.964126 0.168278 0.526971 -0.006092 -0.209442 0.029425 0.119569 0.230093 0.443653 0.101583 -0.876634 0.221217 0.948020 0.429449 -0.412297 0.145999
大 -0.403990 -0.046255 -0.424359 -0.026664 0.140274 0.310639 -0.796454 -0.161242 -0.520793 0.519783 0.127167 -0.222053 -0.050941 0.384148 -0.930975 0.342303 0.443115 -0.307405 0.196901 0.534809 0.637248 -0.013517 -0.941817 -0.611489 0.985814 0.051421 0.079765 -0.005293 0.131720 -0.216255 0.613290 -0.369282 -0.773453 0.106251 -0.269558 -0.128782 0.973886 0.086122 -0.497323 0.513997 -0.386860 -0.141972 -0.746756 -0.488479 0.181775 -0.092698 0.211672 0.700065 -0.266810 -0.186057 0.082804 -0.001807 0.188293 0.554420 -0.484399 0.109039 0.180582 0.652439 0.383096 -0.162337 -0.344142 0.410815 -0.203794 -0.222121 -0.012455 -0.454865 0.271888 0.044344 0.865701 0.148745 0.143286 -0.216475 0.508861 0.437577 0.000709 -0.431149 0.308684 0.096850 0.289177 -0.436894 -0.414045 -0.611925 0.419591 -0.380188 0.577355 -0.263744 0.479616 0.060753 0.282795 -0.353877 0.238120 0.314707 -0.426148 0.403895 -0.035375 -0.164488 -0.198429 -0.642066 0.112489 0.602816
人 0.700854 -0.574890 0.152217 0.376285 -0.434621 0.409870 -0.508530 -0.493350 0.307829 0.075722 0.342916 -0.298711 -0.425354 -0.048082 -0.878739 -0.213889 0.143456 -0.229044 -0.597296 -0.375104 0.423683 0.927155 -0.252734 -0.361449 0.174225 0.327686 0.263487 0.232351 -0.182955 -0.353547 -0.094501 0.050230 0.030936 0.018373 0.319614 1.019000 0.259618 -0.180118 0.253200 -0.325588 -0.938651 0.198039 0.133641 -0.513993 0.033634 -0.318771 -0.026101 0.059808 0.262545 -0.083705 -0.261745 -0.097601 0.523456 0.111217 -0.919626 0.345819 -0.316077 -0.094139 0.085192 0.302005 -0.199144 -0.029071 -0.341960 0.477767 0.672000 -0.841060 0.010296 0.065306 0.251768 0.181687 -0.312268 -0.163741 0.316078 0.038669 -0.474133 -0.243238 0.315832 0.286871 -0.147105 -0.435481 -0.569613 -0.490186 0.246082 -0.182864 1.020468 -0.035811 0.632336 -0.482458 -0.362772 -0.902822 -0.038598 0.498598 0.403713 -0.321213 -0.127062 -0.339268 -0.296989 -0.218415 0.623443 0.471144
不 0.308597 0.477700 -0.124795 -0.278386 -0.181390 0.307388 -0.167589 -0.298757 -0.132662 0.806183 0.310245 -0.677471 -0.578164 -0.899478 -1.169833 0.254570 0.151655 0.032441 0.219914 -0.630687 0.194812 -0.252592 -0.443501 -0.976467 0.746825 0.742510 -0.033776 0.018501 0.307756 -0.592052 -0.453229 -0.205602 -0.355561 -0.073187 0.208437 0.344012 0.069406 0.081909 0.123922 -0.066144 -0.448814 -0.010908 -0.745542 -0.515957 -0.216864 -0.062497 0.446515 -0.375752 0.257246 0.612005 -0.378611 0.573122 0.482581 -0.003452 0.125234 0.271141 -0.216518 0.017634 0.668110 0.067370 -0.169438 0.895334 0.157729 -0.085991 1.136083 -0.759833 0.143426 0.374914 0.485105 -0.287180 -0.201144 -0.817619 -0.076536 0.943724 -0.007581 0.037634 0.490214 -0.499148 -0.151320 -0.322122 -0.902371 -0.192932 0.396920 -0.033347 0.030452 0.121624 0.128896 0.445775 -0.071580 -0.111811 -0.112025 -0.038958 0.169322 -0.327666 -0.303232 0.456398 0.119652 0.356192 -0.093893 -0.139131
上 0.312855 -0.120381 0.258482 -0.290069 0.279664 0.049597 -1.001394 -0.290068 0.193188 -0.024577 0.000364 0.431587 -0.179937 -0.537965 -0.523055 0.273439 0.363467 0.117000 0.078986 -0.569721 0.366940 -0.016670 -0.881855 -0.878190 0.087628 0.610202 -0.088211 -0.092508 0.481108 0.049065 -0.192050 0.165565 0.298524 0.026641 0.169378 0.193650 0.576626 -0.134244 -0.206943 0.481674 -0.414241 -0.125142 -0.547652 0.235398 -0.172413 -0.016753 0.054725 0.133506 -0.171023 -0.204924 0.095365 -0.318257 0.370865 0.071804 -0.004594 -0.585742 -0.310579 0.149395 0.184016 -0.315950 -0.005487 0.031142 -0.609072 0.659381 0.711959 -0.693097 0.796408 -0.723735 -0.127833 -0.414312 -0.272602 0.183884 0.331996 0.852370 0.744622 -0.098754 0.152066 -0.030820 -0.094786 -0.062851 -0.773166 -0.466295 -0.117053 -0.311362 0.211192 -0.310487 1.134226 0.028553 0.597416 0.349813 -0.067709 0.121240 -0.262241 0.558831 -0.427459 0.323376 0.610658 -0.310966 0.180646 -0.179913
为 -0.072039 -0.519970 -0.271740 -0.546765 -0.220667 0.550129 -0.421407 -0.808556 -0.302138 0.534181 0.652579 -0.474598 -0.379446 -0.240109 -0.838100 -0.213893 -0.009989 -0.979264 -0.393402 -0.243543 0.157632 -0.176164 0.090382 -0.931642 -0.069669 0.102852 0.178699 -0.147302 -0.090148 -0.009538 0.251969 0.044084 -0.936940 0.153473 0.046448 0.482603 0.624889 0.072861 0.085911 0.045383 0.385730 0.295048 -0.526885 -0.709552 0.000202 0.558304 0.759103 0.236288 -0.110829 -0.288381 -0.320771 0.229773 0.281399 0.549268 -0.475461 0.467049 -0.007287 -0.205885 0.611171 0.288289 0.012534 0.494729 0.079423 -0.123855 -0.417460 -0.416763 0.329108 0.027116 0.009115 -0.526094 -0.500246 -0.342887 -0.312836 0.040904 -0.072048 -0.358202 0.674134 0.271981 -0.255348 -0.273716 0.125925 -0.334003 0.334532 -0.587197 -0.014090 0.019186 0.327835 -0.344543 -0.268638 -0.119895 -0.259939 0.474497 0.273571 0.540860 -0.377116 -0.020577 0.039819 0.027082 0.016359 0.560684
年 0.076123 0.278582 0.015966 -0.289264 -0.458214 0.199313 -0.899805 -0.605980 -0.034677 0.003972 -0.006836 -0.036354 -0.677003 -0.101743 -0.539377 0.996699 0.050391 -0.047164 -0.387843 -0.226230 0.433570 0.149420 0.239670 -0.763860 -0.439843 0.461095 0.192287 0.642199 0.779123 0.047171 0.178307 0.128581 0.967106 -0.110925 0.497428 -0.172201 0.299303 -0.056253 -0.470504 0.829912 -0.632976 -0.175313 -0.350166 -0.706910 0.162942 1.014065 0.393338 0.092797 0.642983 0.202216 0.488319 0.738627 0.519786 -0.043585 -1.335626 -0.497544 -0.064709 1.219481 -0.071458 -0.006747 -0.446143 -0.175062 0.543748 0.211890 -0.159821 -1.043448 0.494961 -0.392351 0.567741 -0.218254 -0.230522 -0.376765 0.271845 0.190645 -0.062016 -0.514324 0.764195 -0.437690 0.184667 0.385466 -0.010433 -0.425943 0.128636 -0.674411 0.335549 0.261147 0.912562 -0.293931 -0.050384 1.017664 -0.350321 -0.537180 0.382596 0.799269 -0.785151 0.103455 0.053737 -0.264858 -0.168935 0.661770
“ 0.047020 -0.230525 0.189390 0.043915 -0.553343 0.546082 -0.114630 -0.765619 -0.170851 -0.525296 0.264088 -0.015078 -0.384150 -0.256080 -0.860730 0.188106 0.078831 0.368325 0.133731 -0.102380 -0.252871 0.347642 -0.415355 -0.364496 0.033092 0.307235 0.123272 -0.178978 0.090255 0.080575 -0.109670 0.002969 -0.634551 -0.242759 0.079420 -0.175496 -0.115175 0.017008 -0.034805 -0.289684 -0.340468 0.406131 -0.177781 -1.010097 -0.265892 0.535312 0.038776 0.166548 0.208350 -0.063218 0.054110 -0.621339 0.150273 0.746809 0.068428 -0.272360 -0.458389 -0.094136 0.073923 0.520482 -0.415006 0.097433 -0.486941 -0.469375 -0.320110 -0.602299 0.587738 -0.603472 0.183943 0.216182 0.006263 -0.032726 0.134100 0.379961 -0.546430 0.257064 0.611502 0.045929 -0.382036 -0.370537 -0.446292 0.012364 0.121547 -0.192749 0.374003 0.413346 0.662261 -0.649396 -0.048339 -0.055927 0.412296 0.649678 -0.057886 0.456410 -0.440158 -0.068998 -0.124904 0.007966 0.296426 0.558423
3 0.372301 -0.369876 -0.134118 0.227988 -0.162425 -0.212929 -0.112539 -0.741153 0.346155 0.492236 -0.203203 0.524796 -0.938280 -0.918246 -1.121927 0.097263 0.490975 -0.260863 -0.539326 -0.105942 0.467672 0.751751 0.279288 -0.670692 -0.299563 -0.290518 0.363457 0.662220 0.486766 0.319150 0.429627 0.048600 -0.327539 0.282929 0.103851 0.033127 0.155086 0.593139 -0.516720 1.026274 0.165247 -0.592059 0.557726 -0.452649 0.184193 0.298335 -0.430714 -0.009589 -0.449143 -0.394112 0.091112 0.134373 0.073009 0.431127 -0.036548 0.449663 -0.194539 -0.315481 0.017683 0.117078 -0.375232 0.205795 0.237193 0.381179 0.636610 -0.556540 0.355755 0.310210 0.259062 -0.539153 -0.302406 -0.905375 0.678690 0.465909 0.437869 -0.621334 0.196127 0.693316 0.047190 0.682425 0.272457 -0.863554 0.362115 -0.805670 1.046552 -0.088928 0.383674 -0.007602 -0.381614 0.802065 -0.213184 -0.233765 -0.063580 0.641136 -0.050419 0.553913 0.137146 0.021204 0.156116 0.899207
家 -0.134073 0.290664 1.151584 -0.210274 0.336190 0.646767 -1.006773 -0.442725 0.352022 -0.276499 0.006738 -0.259539 -0.909531 0.395951 -0.757003 0.156871 0.389421 -0.486515 -0.671270 -0.580599 -0.018386 -0.412496 -0.372115 -0.328094 -0.163479 0.149816 -0.150767 0.101602 -0.059135 -0.227144 0.221546 -0.578719 0.006791 0.146915 -0.353984 0.515770 0.377957 -0.115248 0.426220 0.304184 -0.072274 -0.368072 -0.370960 -1.091265 0.197516 -0.030358 0.380018 -0.423470 -0.072005 -0.300178 -0.176122 -0.400374 0.983957 0.523645 -0.487335 0.146298 0.035801 0.480570 0.314865 -0.336796 -0.924433 -0.130053 0.294009 -0.387050 -0.003759 -0.265974 0.325899 0.138231 0.056732 0.463817 0.225742 -0.421450 0.500846 0.548478 -0.663740 -0.339866 -0.094424 0.507130 -0.249944 -0.556126 -0.793907 -0.985216 0.333868 -0.131510 0.595239 -0.776630 0.082241 0.362843 -0.125142 -0.479320 0.663953 0.226967 0.400723 0.424411 -0.350489 -0.523283 0.189760 -0.576366 0.169213 0.625809
场 0.042462 -0.637232 -0.427944 -0.605861 -0.251720 0.144960 -0.327754 0.274610 0.332366 0.134712 0.198217 -0.237520 -0.083362 -0.042776 -0.706367 -0.353656 0.615097 0.299727 -0.000866 -0.516374 0.577030 -0.497134 -0.386034 -1.303883 0.130084 0.091726 0.340917 -0.272365 0.110283 0.539862 0.547867 0.395405 0.158898 -0.190996 -0.484767 0.729860 -0.126511 0.739599 -0.290713 0.105477 0.301437 0.112182 -0.314270 -0.410629 0.047450 0.006364 0.376574 0.634221 -0.077091 0.068249 -0.899553 -0.177233 0.482844 0.460808 0.579706 -0.145107 -0.004616 -0.201665 -0.027307 0.229341 0.157940 1.007609 -0.403807 0.362091 0.668466 -0.734993 -0.045557 0.166800 0.067940 0.178810 0.196275 0.050585 -0.698443 0.883821 0.911672 -0.312695 0.521577 -0.364797 0.055521 -0.506372 -1.124986 -0.814534 0.297159 -0.633087 0.368025 -0.579229 0.490840 0.193420 0.051800 -0.116633 -0.232905 -0.483255 -0.562759 0.484288 0.206756 0.712200 0.286541 -0.547935 -0.184813 0.315201
a -0.262663 -0.086760 -0.340926 0.257634 -0.263306 0.149451 0.838135 -0.054506 0.189248 0.327539 -0.001956 0.437846 -0.661405 -0.910545 -0.835196 -0.139862 0.947011 0.371173 -0.672895 0.139384 0.438082 -0.335997 -0.654764 -0.112190 0.333151 0.057455 0.299248 0.629853 0.319039 0.295113 -0.614204 0.253163 0.256618 0.735586 0.667617 -0.312432 0.204545 -0.809511 0.435127 0.276674 -0.050698 0.000678 -0.357445 -0.631676 -0.380241 -0.547619 -0.767738 -0.415709 -0.169369 -0.866528 -0.322488 -0.239542 0.024113 0.673017 0.446474 -0.342018 0.483400 -0.554863 -0.420359 0.641603 0.040951 1.275256 0.235055 -0.052223 0.445019 -0.653338 0.275400 -0.186399 0.224445 0.380104 -0.176993 -1.094335 0.201376 -0.229241 0.487668 -0.659974 0.888300 1.043270 -0.251398 0.043391 -0.190221 -0.398612 0.001900 0.688850 0.840558 -0.591338 -0.096686 -0.012483 0.704718 0.001350 -0.447260 -0.155200 0.507678 0.829873 0.014611 -0.037654 0.338502 0.018982 0.852965 0.201209
这 -0.031413 0.049630 -0.249221 -0.029237 -0.102338 0.402628 -0.425641 -0.711436 -0.156097 0.174679 -0.072278 -0.299378 -0.140288 -0.623368 -0.895094 0.178361 0.610833 -0.472077 0.452545 -0.462310 -0.141843 -0.355741 -0.062833 -0.746178 0.543842 0.766047 -0.240052 -0.347148 0.409712 0.145844 -0.050732 -0.627760 -0.272392 -0.551684 0.287179 0.685592 -0.053066 -0.269819 0.236855 -0.371359 0.028869 -0.180290 -0.607458 -0.331919 -0.392815 0.192632 -0.068220 -0.543338 0.495433 0.309252 0.103667 -0.201381 0.178837 0.360629 -0.181332 0.081330 -0.000121 -0.235265 0.497575 0.426951 -0.160451 0.271950 0.400889 -0.378950 0.350384 -0.984847 0.560410 -0.557782 0.206647 -0.165256 0.055011 0.112990 0.231738 0.668541 -0.237516 -0.800034 1.072841 0.084816 -0.070720 -0.837919 -0.216284 -0.529154 -0.226808 -0.266595 0.295831 0.111065 0.454804 -0.152582 0.015329 -0.220076 0.131701 0.477814 -0.272941 0.347996 -0.182183 0.433927 0.210508 0.110646 0.274076 0.226545
个 -0.064877 0.067593 -0.659922 0.158895 0.091640 0.414828 -0.636107 -0.814158 0.018483 0.401800 -0.314878 -0.188575 0.057707 -0.390337 -1.145108 -0.103006 0.504377 -0.888216 -0.051736 -0.716224 0.135005 0.016326 -0.125123 -0.722975 0.312649 0.498586 0.046067 -0.123767 0.222897 0.201035 -0.073120 -0.596675 0.186707 -0.173371 0.106712 0.902209 -0.293692 -0.058744 -0.101365 -0.436251 -0.103618 -0.324422 0.065142 -0.474488 -0.512087 0.024911 0.053163 -0.232487 -0.077608 0.375566 0.034815 0.008147 0.548727 0.411280 -0.361642 0.078667 0.016076 -0.239367 0.552214 0.202598 0.124060 -0.024976 0.113344 -0.259003 0.310187 -0.918849 0.368708 -0.454671 0.346169 -0.139280 -0.233610 0.548670 0.311302 0.359196 0.164677 -0.780708 0.676146 0.087635 -0.120431 -0.358451 -0.184336 -0.855252 -0.477512 -0.279282 0.501707 0.245151 0.311471 -0.160053 -0.177568 -0.095464 0.123340 0.095382 -0.180745 0.893386 0.122381 0.430551 0.272915 -0.192229 0.161528 0.253372
银 0.954462 -0.914047 -0.060058 -0.632381 0.038146 0.393528 -0.450772 -0.740236 0.213244 0.020697 0.289246 -0.557701 0.758279 0.975347 -0.901968 0.503961 0.148625 -0.238780 -0.722422 -0.588535 -0.213992 0.165000 -0.274413 -0.345742 0.384917 0.420090 -0.343304 0.244045 0.586213 -0.330901 -0.548936 0.014119 -0.594172 0.328772 -0.195060 0.384399 0.087415 -0.713542 0.587402 0.518531 -0.377043 0.372117 0.058290 -0.952186 -0.469009 -0.114318 0.558583 0.249376 -1.077423 -0.470953 -0.389597 0.099204 -0.004689 -0.250827 -0.438900 -0.726037 -0.408113 0.972873 0.279798 -0.245242 -0.528134 -0.223064 -0.489746 0.589865 -0.057051 -0.399878 0.478589 0.419447 0.677081 -0.214741 0.783541 -0.935801 0.373606 0.259659 0.362575 -0.201418 0.409430 -0.329431 0.304777 0.013709 0.006624 -0.983849 0.871190 0.822343 0.233914 0.913188 0.792939 -0.146141 0.350513 0.082445 -0.057410 -0.410086 0.839978 0.234976 -0.486550 -0.775807 -0.267315 -0.006137 0.110640 0.910620
发 -0.112381 -1.171706 -0.125180 0.050524 -0.859219 -0.211324 -1.003152 -0.545359 0.193119 0.179398 -0.081523 -0.127483 0.001245 0.049607 -0.285975 0.847719 0.193456 -0.120574 -0.038679 -0.478252 0.019576 -0.121041 -0.600860 -0.428792 -0.593200 0.128873 0.450623 0.702585 0.092457 0.400624 -0.429353 0.197129 -0.262321 0.568078 -0.000372 -0.134172 0.220545 -0.592244 -0.446869 0.221078 -0.220354 0.562952 -0.618508 -0.727642 -0.304828 -0.584236 0.128400 -0.162243 -0.447292 -0.194656 0.055546 0.025760 0.554158 -0.071543 -0.770040 0.012824 -0.135626 0.243315 0.731243 -0.123963 0.182406 0.368216 -0.305840 0.682289 0.283490 -0.620825 0.540169 -0.094171 0.795240 0.616606 -0.040661 -0.340286 0.587789 0.408011 -0.049964 0.188261 1.069543 0.343231 0.134716 -0.418934 0.675292 -0.780909 0.071415 0.568848 0.008841 0.618815 0.449299 0.235834 0.449560 -0.261143 -0.485195 0.101755 0.582803 0.446907 -0.043532 -0.327797 0.940097 -0.268901 0.546489 0.127927
” -0.284830 -0.365549 0.541595 0.159102 -0.325166 0.437875 0.100509 -0.662183 -0.164198 -0.211209 0.245219 -0.096359 -0.178588 -0.394396 -0.510051 0.198464 -0.264146 0.238391 -0.084882 -0.017869 -0.172904 0.366190 -0.753374 -0.181872 0.201654 0.165675 -0.236455 -0.254932 0.205189 -0.097151 -0.176059 0.135461 -0.517647 -0.113822 0.133303 -0.320716 0.111667 0.134057 -0.259413 -0.429113 -0.521963 0.423148 -0.366297 -0.953760 -0.112974 0.567082 0.070922 0.370894 0.113155 -0.360917 0.206308 -0.922470 0.205323 0.737905 0.204238 -0.069110 -0.682499 -0.330427 0.426439 0.326709 -0.308611 -0.096608 -0.757202 -0.324972 -0.242447 -0.318089 0.687657 -0.503024 0.406817 0.417109 0.316550 -0.304738 0.427954 0.620511 0.019777 0.609324 0.362241 -0.289187 -0.056942 -0.277001 -0.569217 -0.203836 0.747841 0.022393 0.472922 0.478493 0.525066 -0.386946 -0.009914 -0.201382 0.370617 0.935884 -0.111567 0.708435 -0.287424 0.044232 0.190485 -0.030007 0.190846 0.581057
出 -0.176944 -0.692883 -0.136690 0.220397 -0.582197 0.013302 -1.094315 -0.822836 0.126895 0.124245 -0.211266 -0.146954 -0.516832 -0.469266 -1.018097 0.141934 -0.029046 0.339052 -0.256851 0.010588 0.293057 -0.187136 -0.260822 -0.295660 0.110365 0.495041 0.647502 -0.033214 0.351557 -0.306698 -0.269097 0.108681 0.104802 0.210065 -0.321678 0.242427 -0.523381 0.549590 -0.231718 0.297975 0.141587 0.351206 -0.969507 -0.321530 -0.436016 0.005912 0.251285 -0.463484 -0.239814 -0.645268 -0.392766 0.483403 0.477941 0.673096 -0.077745 0.737130 -0.431002 0.053671 0.486320 -0.143836 -0.078814 0.396686 -0.373442 0.576654 0.171472 -0.665093 0.182421 -0.091704 -0.227458 0.267817 0.085054 0.119969 0.295757 0.560892 0.029028 -0.393747 0.481577 0.688738 0.009856 -0.608422 0.086048 -0.684721 -0.439514 0.098680 -0.074312 0.274778 0.750097 -0.107190 0.018816 0.155594 -0.166602 0.256272 -0.265710 -0.090628 -0.577052 0.303490 0.327562 -0.160238 -0.246222 0.643551
会 -0.449859 -0.071949 0.402498 -0.255979 0.004476 0.083982 -0.346440 -0.611348 0.664881 0.699175 0.131893 0.582863 -0.021449 -0.210093 -0.338252 0.066406 0.363534 -0.139446 0.089030 -0.087737 0.117542 -0.442573 -0.930035 -0.322717 0.014175 1.263215 -0.671249 -0.011604 0.108821 -0.129967 -0.158281 0.085312 -0.163376 0.491537 -0.012873 0.762654 0.494720 -0.063873 -0.340701 -0.296817 -0.324826 0.101696 -0.899276 -0.374102 0.232118 -0.370816 0.253690 0.237750 -0.066136 -0.554208 -0.574242 -0.320595 0.575805 0.090765 -0.664252 -0.290353 0.081767 0.351122 0.136297 -0.547213 -0.197996 0.380799 0.035884 -0.027225 1.410266 -0.475824 -0.274480 0.661696 0.720996 0.089107 -0.308720 -0.327487 0.164463 0.612412 -0.262161 -0.508367 1.042243 0.093508 -0.795179 -0.263151 -0.136194 -0.551244 -0.575333 0.564813 0.064065 0.222384 0.827073 0.074798 0.046433 -0.188180 0.328920 0.290488 0.796271 0.067109 0.513344 -0.407569 0.370117 -0.129270 0.168137 0.452568
： 0.792712 -0.368955 -0.228407 -0.352540 -0.094892 0.386735 -1.327774 -0.680130 -0.289324 0.065839 0.082909 -0.623455 0.416595 -0.587682 -0.926552 0.062280 0.412327 0.470097 0.255098 -0.092531 0.497137 0.142158 0.002026 -0.573049 -0.738013 -0.223354 0.749658 0.166196 -0.084011 0.400812 0.590557 -0.411113 -0.777240 0.137419 -0.380390 0.077418 0.652950 0.221869 -0.528745 0.323233 -0.034732 -0.423242 0.537880 0.544923 -0.716499 0.073861 -0.412532 -0.286738 -0.087733 -0.272186 0.161115 -0.190903 0.332453 0.258446 0.239606 0.479140 0.459101 0.271880 -0.400429 0.653380 -0.602185 1.513540 -0.289145 0.161013 0.317432 -0.367257 0.817899 -0.254802 -0.133623 0.100787 -0.126628 -0.664638 -0.117447 0.092377 -0.281327 0.329205 0.313123 1.079397 0.017076 0.030359 -0.247425 -0.597425 -0.776290 -0.167142 0.947665 0.572794 0.776894 -0.011359 -0.356587 -0.168656 0.394659 0.697823 -0.354778 -0.146746 -0.129571 0.349627 0.085299 0.378590 0.849594 0.720232
主 -0.087584 -0.197314 0.333552 -0.196054 -0.073196 0.831692 -0.940076 -0.578150 -0.015709 0.149853 0.274619 -0.191500 -0.361133 -0.049574 -1.030543 -0.134711 -0.045906 0.082210 -0.389466 -0.151740 1.188630 -0.347262 -0.469361 -0.597362 -0.101060 -0.064899 0.415215 -0.179939 -0.046137 0.676145 0.828041 0.093638 -0.361532 0.875861 -0.171716 0.833781 0.334244 0.802908 -0.109312 0.044841 -0.064817 -0.347367 -0.136704 0.243514 -0.132032 -0.180898 0.234760 0.320770 0.191863 -0.805554 -1.039924 0.170066 0.597242 0.511615 -0.094632 -0.104174 -0.153131 -0.286519 0.340983 -0.013743 0.700199 0.652609 -0.661223 -0.065153 -0.088984 -0.692889 -0.340458 0.634800 0.407522 -0.134029 -0.202259 0.458196 -0.392625 0.627516 0.088132 -0.347438 0.768198 -0.124468 -0.363454 0.228132 -0.832676 -0.142396 -0.034215 -0.008537 0.284207 0.055773 0.250860 -0.196412 -0.103390 -0.287290 0.168236 -0.148012 -0.001325 -0.253719 -0.144466 0.516430 -0.251731 -0.033332 -0.046771 0.334706
和 -0.321940 -0.071750 -0.363838 -0.295126 0.169833 0.359984 -0.074950 -0.304527 -0.273960 0.108095 -0.333259 -0.008717 -0.064145 0.139197 -0.872767 0.065800 0.003427 -0.294267 -0.651000 0.101330 1.001872 -0.150734 -0.451933 -0.517144 -0.105582 0.039126 -0.206028 0.327119 0.089375 0.182791 0.425048 0.000794 -0.197508 -0.453202 0.061401 0.359376 0.014901 -0.197542 0.304309 0.075146 -0.172205 -0.025510 -0.246163 -0.776554 -0.055833 -0.200361 -0.296466 0.101614 -0.438426 -0.238179 -0.266883 -0.596721 0.132088 0.578410 -0.376911 -0.123644 -0.430308 0.271376 -0.053938 -0.095319 0.022463 0.157111 -0.085367 0.351530 0.426236 -0.261818 0.210201 0.113420 -0.102803 0.299253 -0.200086 -0.677309 0.226014 0.009033 0.129681 -0.110770 0.457343 0.367158 -0.323929 0.181488 -0.183630 0.004329 0.574731 0.052210 0.334940 -0.060733 0.126602 0.107465 0.217454 -0.480100 -0.223020 -0.020706 0.025337 0.261377 -0.591252 -0.042466 0.101348 -0.788362 -0.044578 0.156900
以 0.109211 -0.077521 -0.568708 0.185459 -0.042266 0.098878 -0.207197 -0.103555 0.146507 -0.190075 -0.415714 -0.107303 -0.710992 -0.222476 -0.838852 -0.101570 0.071957 -0.047465 -0.016468 -0.430054 0.584327 -0.012795 0.042886 -0.474540 0.063226 0.316298 -0.202291 0.185885 0.229155 -0.011077 -0.373833 0.092714 0.037905 0.252895 -0.133237 0.553881 0.815293 0.071881 0.275251 0.029834 -0.389902 -0.456266 -0.197414 -0.629952 -0.300939 0.242323 0.461444 -0.154597 -0.243591 0.079038 -0.114386 0.232823 0.048355 0.522281 0.163829 -0.046428 -0.110142 0.394076 0.254767 0.134115 -0.116731 0.071957 0.109821 0.390481 0.470124 -0.751374 0.011940 -0.315664 -0.201868 -0.443079 -0.183492 -0.318106 0.203577 0.850012 -0.264412 -0.208664 0.088119 0.293514 -0.376134 0.251589 -0.610706 -0.953079 -0.417167 -0.182688 0.293158 -0.485660 0.989381 -0.538158 0.094232 0.296468 -0.107943 0.459245 0.068205 0.511637 -0.815309 0.034595 0.271206 0.001800 0.089258 0.467499
到 0.000361 0.092348 -0.038365 0.238494 -0.536001 0.001870 -0.394841 -0.002828 0.596145 -0.119621 -0.250853 0.403386 -0.681084 -0.250855 -0.606745 0.255570 0.609596 -0.105006 -0.328175 -0.055625 0.308584 0.119941 -0.362633 -0.948370 0.408429 0.223767 -0.120473 -0.284257 0.161983 -0.250409 0.221050 -0.141969 -0.249225 -0.222326 -0.464565 0.633764 0.473759 -0.134580 -0.131110 -0.148294 -0.184426 0.003573 0.526370 -0.761092 -0.133411 -0.238248 -0.096045 0.056590 -0.059469 0.328502 -0.263393 0.512340 -0.400518 0.549461 0.078521 -0.247105 0.150013 0.406637 0.324346 0.330619 -0.274530 0.059515 0.465643 0.374047 0.011287 -1.151282 -0.206707 -0.239704 0.022661 -0.567113 0.270658 -0.337320 0.571996 1.001166 -0.758100 -0.035211 0.050979 -0.289058 -0.048708 -0.186560 -0.225502 -0.748246 -0.342756 -0.131691 0.588938 0.335260 0.380054 -0.176526 -0.303632 0.438836 0.549725 0.388233 0.597358 0.111566 -0.417775 0.391967 0.454226 0.067451 -0.183486 -0.293771
e -0.486322 -0.115401 -0.041138 0.394973 -0.409413 0.947850 0.542481 0.187304 -0.215419 0.189074 0.025834 0.905428 -1.336516 -1.443741 -0.564001 0.096294 0.649531 0.087358 -0.768957 0.416991 0.533916 0.083289 -0.332796 0.294877 -0.229560 -0.148232 0.088277 0.593988 0.174883 0.394435 -1.022328 0.139174 0.093856 0.679469 0.738224 -0.839635 -0.085251 -0.632201 0.363400 0.621095 0.171470 0.482543 -0.008361 -0.417539 -0.595926 -0.501322 -0.436110 -0.315079 0.146880 -1.326475 -0.525751 -0.262168 0.091392 0.657004 0.388946 -0.208386 0.523521 -0.633394 -0.507567 0.471942 0.303917 1.347916 0.159281 -0.271552 0.186555 -0.875234 -0.023771 -0.549069 -0.129022 0.288451 -0.061931 -0.843247 0.224869 -0.321580 0.282782 -0.657376 0.598849 0.973124 0.179638 0.459926 0.350932 -0.174449 0.317606 0.389611 1.011598 -0.179168 0.158220 0.075266 0.368233 -0.264063 -0.390746 -0.121280 0.517510 0.614803 -0.263069 0.190906 0.164160 0.343134 0.560801 0.213752
地 0.209014 0.240011 -0.385969 -0.185472 0.375096 -0.373367 -0.629204 -0.363143 -0.155412 0.645033 0.350260 -0.651416 0.430792 0.030590 -0.071440 -0.036107 0.663116 -0.578621 0.026912 0.191625 0.820209 -0.296872 -0.348102 -1.169410 -0.262781 0.426239 0.120472 -0.544027 0.136514 0.645331 -0.090073 -0.402693 -0.079398 -0.276729 0.052664 0.565313 0.775880 -0.055235 -0.045226 -0.290639 0.146024 -0.318921 0.197823 -0.963126 -0.249170 -0.076408 -0.468350 -0.223060 0.190339 -0.335767 0.272197 -0.605562 0.494057 0.044498 0.423638 -0.245261 -0.103605 0.328662 1.282825 -0.263217 0.239394 0.238805 0.063327 0.064124 0.366970 -0.619177 -0.192341 -1.105518 -0.071602 0.267560 0.634215 -0.048101 0.292652 -0.450419 0.536424 0.123803 0.443103 0.522940 -0.271607 -0.057875 -0.233917 -0.195095 -0.079639 0.312853 0.769679 -0.009539 0.332721 0.109302 -0.330175 -0.739891 -0.305511 0.751040 0.030429 0.553566 -0.562931 -0.058560 0.655550 -0.761092 -0.084050 0.018583
日 0.481553 -0.567726 1.247241 0.316634 -0.525295 -0.110370 -0.832281 -0.165427 0.302265 0.169587 -0.156053 0.115008 -0.191317 -0.523944 -0.005765 0.939688 0.375089 -0.358574 0.055186 0.421381 0.199024 0.524957 -0.139712 0.091944 -0.784943 0.232008 0.367853 0.097815 0.256729 -0.087289 0.328918 -0.395447 0.356132 0.121836 -0.017748 -0.602945 0.465365 -0.253426 -0.693684 0.602237 0.293316 0.279856 0.141999 -0.759940 -0.175273 0.268045 -0.013016 -0.340144 -0.337622 -0.712825 -0.224993 0.207767 0.333689 0.668107 -0.284792 -0.427331 -0.313878 0.267149 0.329382 0.323357 -0.614432 -0.797410 -0.003962 1.048043 0.680856 -0.515632 0.336418 -0.571011 0.539738 0.013225 0.215113 -0.483468 0.353035 0.903841 0.148209 -0.362204 0.413034 -0.055070 0.150381 0.724629 -0.101936 -0.411221 -0.229889 -0.209126 0.542877 0.405858 1.452811 0.248057 -0.272341 1.041309 -0.393741 -0.512723 -0.527700 0.506449 -0.841678 0.168835 -0.357475 -0.609726 0.345129 0.006948
时 -0.208668 -0.007161 -0.132226 0.071729 0.177373 0.833515 -0.920167 0.048943 0.430268 0.384110 -0.281451 -0.162101 -0.585623 -0.915329 -0.904847 0.145646 0.258644 -0.303683 0.258150 -0.255949 -0.078871 0.239962 -0.106392 -0.294106 0.242500 0.982322 -0.532889 -0.495504 0.486317 0.454328 -0.462223 -0.039573 0.269154 0.243007 0.426611 -0.236277 -0.131731 0.646409 -0.412586 0.376891 0.670127 0.300263 0.695794 -0.784826 0.122961 0.149478 -0.420606 -0.214603 0.488487 0.180390 -0.052695 0.412627 -0.323442 -0.011719 -0.329630 -0.054610 0.041335 0.662286 0.234020 0.367891 -0.497213 -0.551251 -0.339971 0.180134 0.680590 -1.407380 0.487735 -0.124576 0.405046 -0.021347 0.006821 -0.472840 0.244125 0.403000 -0.458295 0.058589 0.141028 0.313244 -0.711218 -0.269712 -0.168025 -0.947190 -0.203069 -0.556601 -0.207687 0.478793 0.277253 0.126916 -0.199188 -0.225145 -0.475467 -0.168016 0.306182 0.072518 -1.032816 -0.212755 0.369109 -0.091365 -0.484611 -0.174943
o -0.753304 -0.243255 -0.202448 0.458585 -0.073162 0.422678 0.752084 -0.164287 -0.024679 0.313791 -0.141820 0.689216 -0.770325 -0.966918 -0.823988 0.041750 0.440421 0.338395 -0.277098 0.286021 0.183481 -0.229673 -0.561190 -0.152201 0.153761 -0.064661 0.208553 0.506953 0.399072 0.217884 -0.686259 0.125951 0.099929 1.198742 0.614385 -0.562972 0.485180 -0.978575 0.435198 0.559360 0.009599 0.313363 -0.250234 -0.264309 -0.246695 -0.586635 -0.556673 -0.406441 0.048979 -0.943696 -0.296491 -0.339051 -0.262291 1.059405 0.199648 -0.031545 0.387658 -0.627891 -0.714756 0.490986 0.144471 1.069996 0.168680 -0.475841 0.395206 -0.820135 0.340592 -0.205924 -0.066954 0.274661 -0.217170 -1.108185 0.255053 -0.138191 -0.200505 -1.094069 0.732840 0.981388 -0.115384 0.566983 0.151147 -0.174813 -0.164919 0.604189 0.812899 -0.295070 0.354031 -0.103490 0.596370 -0.079961 -0.279980 0.148623 0.700632 0.994358 0.066645 0.226756 0.571105 0.458443 0.737326 0.098801
作 -0.298236 -0.814141 0.334680 -0.168506 -0.538926 0.761038 -1.077357 -0.213634 -0.563733 -0.169690 0.543708 -0.284243 -1.051321 -0.533787 0.003828 0.045022 -0.044063 -0.146810 -0.138728 -0.201555 0.251786 -0.091902 0.247450 -0.047040 -0.160871 0.198270 0.240297 -0.473474 -0.128605 0.107539 -0.114472 0.146239 -0.204308 0.395200 0.414351 0.275543 0.189579 0.079361 0.008424 -0.243863 -0.015920 0.625912 -0.163924 -0.882093 0.297985 0.309894 0.285390 -0.122966 0.037462 -0.566538 -0.690104 -0.505432 0.205292 0.516117 -0.738375 0.297786 -0.124972 0.278878 -0.309539 0.353354 0.152324 1.074102 0.235200 -0.437757 0.115454 -0.200849 0.155938 -0.115980 0.217289 -0.434557 -0.268487 -0.269625 0.623186 -0.364179 -0.467159 -0.284710 0.752521 0.290391 0.044251 -0.082055 -0.143030 -0.783851 0.307739 -0.007381 0.112206 -0.387479 1.063349 -0.073905 -0.314552 -1.159222 -0.163942 0.466163 -0.342266 0.807387 -0.054236 0.369414 0.279301 -0.348410 -0.095092 0.192858
于 0.195332 0.217668 0.254651 -0.279592 0.084869 -0.081710 -0.951840 -0.349701 0.023511 -0.005260 0.164072 0.122461 0.048808 -0.045039 -0.499891 0.310911 -0.057435 -0.107324 0.058779 -0.066695 0.417504 0.029369 0.043516 -0.782316 -0.427662 0.529319 0.103035 0.038657 -0.130965 0.233000 -0.137652 -0.066304 0.202447 -0.240456 0.335897 0.376307 0.177949 -0.680287 -0.123308 0.757096 -0.072675 0.305084 -1.056783 -0.877416 0.087040 -0.185682 -0.185605 -0.502367 0.287100 -0.278349 -0.005789 -0.389063 0.120630 0.311927 -0.427274 0.606454 -0.432341 0.053244 0.511805 -0.349416 0.201028 0.364331 0.158831 0.221853 0.163430 -1.260620 0.371434 -0.437376 -0.035550 0.318560 -0.065891 -0.349557 -0.688038 0.402917 0.150952 -0.498327 -0.093169 0.067337 0.838204 0.554710 -0.458328 0.426148 0.411072 -0.673835 0.252780 0.449943 0.411948 -0.250681 -0.206397 0.242066 -0.091448 -0.505073 0.495315 0.980839 -0.462544 0.719163 -0.074806 -0.160486 0.003690 -0.022559
公 0.140022 -0.598897 0.579621 0.274350 -0.253964 0.442889 -0.839947 -0.310421 0.102996 -0.131623 -0.227728 -0.394553 -0.980563 0.254433 -0.759324 0.195016 0.466379 0.125640 -0.246826 -0.156209 0.819244 -0.271464 -0.893244 0.185119 -0.070415 -0.440258 0.092596 -0.293548 -0.311584 0.042861 -0.233671 -0.163069 -0.181520 0.190498 0.065475 0.561348 0.058516 0.414016 -0.335543 0.089805 -0.448893 0.014856 -0.369169 -0.641582 -0.226896 0.053902 0.109095 0.189635 -0.370732 -0.988199 -0.763742 0.152383 0.667440 -0.030431 0.073082 -0.207441 -0.596065 0.082225 -0.076195 -0.885375 0.007590 -0.564217 0.085739 -0.398680 -0.209902 -0.784728 0.514193 -0.834486 -0.364692 -0.621220 -0.059913 -0.090085 -0.540755 -0.287684 0.072670 -0.561270 0.196247 0.850509 0.081525 -0.641071 0.140854 -0.344797 0.742683 0.242848 1.127667 1.003040 0.817074 1.063267 -0.099894 0.110055 -0.244911 -0.535744 0.828109 0.184678 -0.359059 0.039438 0.602134 -0.862436 0.717458 -1.056121
对 0.111352 -0.296360 0.246111 -0.388246 0.081710 -0.126058 -0.470815 -0.656691 -0.180631 -0.061304 -0.109636 -0.440167 0.010091 -0.062022 -0.701346 -0.134452 -0.156450 -0.190142 0.683796 -0.547870 0.473119 -0.169094 0.144900 -0.527460 -0.031910 0.732391 0.563902 -0.216520 -0.090394 0.109438 0.052323 -0.227398 -0.226041 -0.238265 -0.156052 0.340745 -0.133516 -0.111428 0.398306 0.515774 -0.204582 0.207250 -0.575406 -0.370657 0.244111 -0.314366 -0.697836 -0.023228 -0.143648 0.144094 -0.597303 -0.238829 -0.205728 0.433192 -0.176678 0.237683 -0.396640 -0.312731 -0.110528 0.036569 -0.195824 0.443640 -0.476914 0.237480 0.869849 -0.692024 0.356471 0.145319 0.243379 0.410697 0.485473 -0.349426 -0.254675 0.764091 0.087528 -0.998294 0.535758 0.089072 -0.085953 -0.273580 -0.470114 -0.138322 0.563404 -0.062948 0.148758 0.081136 0.294953 0.016456 0.181560 -0.330932 -0.402870 -0.296587 0.163106 -0.212006 -0.497154 0.431064 0.157960 -0.112508 0.174008 0.543803
市 0.515398 -0.940942 0.210501 -0.681346 -0.251610 0.074788 -0.231435 0.090182 0.458181 -0.058021 -0.011640 -0.597995 0.058780 0.795803 0.231551 -0.260622 -0.053761 -0.782598 -0.181999 -0.940700 0.402011 -0.132026 -1.089100 -0.382789 0.117055 0.365007 -0.315090 -0.070285 -0.320211 0.312269 0.291411 -0.047525 -0.350135 -0.626979 -0.183516 -0.069059 -0.001961 0.404868 -0.498291 -0.081095 -0.509422 0.140060 -0.883094 -0.687024 -0.560764 0.398236 -0.100399 0.352983 0.513004 -0.594690 -0.000663 -0.423476 0.866899 0.351407 -0.346755 0.020447 -0.221952 0.855163 0.976983 -0.648893 -0.025090 -0.372038 0.176744 0.951203 0.180341 -0.833592 -0.298315 -0.480068 0.008121 0.502868 0.205943 -0.206676 0.420362 -0.173432 0.267402 -0.029694 0.712700 0.441806 0.245718 0.068136 -0.774802 -0.090565 -0.259567 -0.024296 0.736009 -0.000692 0.645708 0.509358 -0.284043 0.583945 0.132983 -0.450151 0.261594 0.215306 0.186469 -0.036837 0.093340 -1.240032 -0.056837 0.402678
经 -0.356163 -0.508360 0.450568 -0.351026 -0.668240 0.103501 -0.352113 -0.543940 -0.034719 0.439307 -0.121418 -0.125053 -0.413520 -0.292439 -0.034557 0.179040 -0.937811 -0.696406 0.411601 -0.523353 0.033844 -0.444563 -0.071824 -0.880162 -0.074010 0.243368 0.449036 0.241189 0.717444 0.129485 0.282128 0.537969 -0.090236 0.158252 -0.341184 0.136355 0.539861 0.273411 0.144101 0.732181 0.155066 -0.101585 -0.657129 -0.402179 -1.054072 0.109422 -0.460331 0.091538 0.042438 0.379951 -0.209480 0.762292 0.486033 0.226112 -0.317408 -0.529921 -0.834404 0.449977 0.568099 -0.272848 -0.348328 -0.107749 -0.374571 0.014799 -0.090437 -1.025578 -0.345874 -0.545912 0.158992 0.135675 0.046033 -0.270678 0.709574 0.646583 -1.311868 -0.278631 0.616715 0.025497 0.039872 -0.506225 0.551312 -0.238982 0.571617 0.055230 0.883752 -0.236808 0.573874 0.357218 -0.110328 -0.643848 -0.006177 -0.684999 0.390597 0.171813 -0.673409 -0.145968 0.119020 -1.266620 -0.087176 -0.317737
前 0.331841 -0.406500 0.138095 0.035028 -0.129446 0.535508 -0.377796 0.170144 0.346352 0.080568 -0.401308 0.100150 -0.456851 -0.279535 -0.671369 0.121414 -0.501504 -0.626500 0.139004 -0.165421 0.320452 0.004847 -0.559228 -0.409204 0.130859 0.646364 0.397478 -0.049101 0.292224 0.115905 -0.140005 0.089203 0.497203 0.532600 -0.310654 -0.260074 0.099304 0.126420 0.117063 0.099400 0.019579 -0.266656 0.256523 -0.310340 -0.368975 -0.160376 -0.111476 -0.103319 -0.669745 0.396157 -0.522892 -0.066279 0.264991 0.469246 -0.656932 -0.047640 -0.197912 0.394824 0.595123 0.477049 -0.318657 0.371263 0.013608 0.741169 0.042381 -0.550142 0.300692 -0.429039 -0.064851 -0.000480 0.623375 -0.501134 -0.456706 0.604927 0.138588 -0.708046 0.382037 0.077788 -0.281186 0.035553 -0.202347 -0.407007 0.177956 -0.570401 -0.149959 0.169615 1.066325 0.112880 0.128915 0.070414 -0.409555 0.107657 0.133096 0.090159 -1.082893 0.703234 0.234129 0.053509 0.172347 0.298170
我 0.099147 0.365117 -0.085352 -0.692189 -0.664080 0.403677 -0.592913 -0.220942 0.087656 0.066780 0.018766 -0.316074 -0.166449 -0.059578 -1.088554 -0.256328 -0.163418 -0.482601 0.734823 -0.187795 0.346775 0.258558 -0.251523 -0.754060 -0.048651 0.619336 -0.269322 -0.308949 -0.096616 0.222512 -0.061492 -1.021376 -0.300374 -0.251967 0.021430 0.881261 -0.022365 -0.462058 0.186161 -0.454604 0.282756 -0.154985 -0.324508 0.025702 -0.287777 0.537590 -0.013211 -0.016475 0.055329 0.046760 -0.028630 -0.032687 -0.201242 0.727399 -0.880556 0.036159 0.864136 -0.163593 0.079258 0.051607 -0.218608 0.387155 0.759991 -0.291945 1.211551 -1.056689 0.169701 -0.740345 0.479579 0.164183 0.006193 -0.051934 0.553318 0.431164 -1.231946 -0.407150 0.933420 -0.007679 -0.690133 -0.165721 -0.779043 -0.719494 -0.174971 -0.003048 0.453966 -0.272249 0.762792 -0.077795 -0.308057 0.618153 0.424684 0.142976 0.310708 -0.227396 -0.452238 0.322487 0.341246 0.597814 0.213226 0.136140
来 -0.018905 0.407385 -0.484019 -0.249084 -0.215350 -0.160227 -0.680940 0.074688 -0.272417 -0.510551 -0.199413 0.043131 -0.317934 -0.044839 -0.752039 0.326974 0.069529 -0.289597 -0.229736 -0.523991 0.450409 0.100241 -0.329667 -0.578797 0.138806 0.188035 0.280495 0.347908 0.194801 -0.184161 -0.167323 -0.459359 -0.112543 0.107758 -0.174324 0.537104 0.504991 -0.216387 -0.134350 -0.324957 -0.209548 0.168298 -0.262267 -0.592280 -0.124631 0.140398 -0.220847 -0.237887 0.037520 0.497747 -0.397679 0.179934 -0.286564 0.419717 -0.168570 -0.016691 0.450176 0.280241 0.594194 0.202083 -0.176925 0.414824 0.362991 0.588513 0.069176 -0.758621 -0.129283 -0.582530 0.161557 0.198388 -0.165708 -0.023733 0.518270 0.992398 -0.137629 -0.051774 0.220697 0.220179 0.086578 -0.332367 -0.641874 -0.667245 0.094117 0.059198 -0.275997 0.176652 0.694365 -0.115135 0.077452 -0.056034 0.139025 -0.094113 0.328007 0.242180 -0.446289 0.411059 0.416760 0.320162 -0.015066 0.159314
队 0.259732 0.401090 -0.862447 0.409367 0.299524 0.302636 0.177933 -0.242370 0.056045 -0.654700 -0.183914 0.729691 -0.904784 -0.472365 -1.270545 0.414384 0.627608 0.188685 -0.613692 0.129183 1.054633 -0.380190 -0.240640 -0.605609 0.158037 -0.258060 0.103946 0.482678 0.522035 0.183423 1.292443 0.032922 0.344045 0.899163 -0.199970 0.152476 0.034717 0.454836 -0.280109 0.380614 -0.248766 0.013695 0.075919 0.232481 -0.183273 -0.431703 -0.429836 -0.066797 0.096843 0.464328 -0.911399 -0.777965 0.427381 1.060053 0.495726 0.108700 -0.619059 -0.048547 0.652521 -0.417446 0.442774 0.487724 -0.516326 -0.444882 0.908283 -0.675550 -0.162703 0.957205 1.061979 -0.001638 0.651992 0.077957 -0.467734 0.766756 -0.102292 -0.290580 0.421501 -0.174816 0.092999 -0.833229 -0.360684 -0.163909 0.189917 -0.136883 -0.739453 0.154247 0.096656 0.177209 0.502409 -0.697357 -0.487717 -0.383496 -0.131181 0.225765 -0.715492 1.403393 -0.462822 -0.600850 0.574579 0.066466
5 0.377820 -0.406135 -0.176013 0.327046 -0.048880 0.138637 -0.366177 -0.588874 0.840986 0.354391 0.037565 0.503654 -0.676217 -1.038854 -0.810391 0.415967 0.126423 0.028764 -0.457322 -0.172024 0.305580 0.320857 -0.118832 -0.406789 -0.087375 -0.309025 0.344440 0.052072 0.445355 0.517813 0.472840 0.526115 0.117483 -0.034161 0.129330 0.062723 0.217300 0.349848 -0.392660 1.220844 -0.194748 -0.415757 0.113338 -0.849008 0.147571 0.711920 0.007068 0.093250 -0.176989 -0.519981 -0.055674 0.443202 0.468234 0.277565 0.313194 0.257690 -0.075740 -0.211732 0.532905 -0.172535 -0.086581 -0.329686 0.610225 0.448696 -0.077784 -0.420289 -0.212324 0.142087 0.463978 -0.207930 -0.398888 -0.631571 0.174170 0.497733 0.625870 -0.536559 -0.256704 0.313926 0.461296 0.544537 -0.020876 -0.902609 0.811041 -0.937056 0.761881 -0.156402 0.697266 0.340676 -0.357298 0.493694 -0.146665 -0.241531 -0.390240 0.836784 0.060692 0.407695 -0.240659 -0.345036 0.055672 0.455414
本 0.201153 -0.207339 -0.238780 -0.922125 -0.154668 0.167238 -0.684185 0.288456 0.106812 0.009648 0.597698 -0.265804 -0.090105 -0.977910 -0.220969 -0.154805 0.582462 -0.594938 -0.061895 -0.210702 0.047955 -0.141671 -0.220844 -0.145159 -0.190631 0.322983 0.574827 0.118240 -0.513138 0.440458 0.403012 -0.029294 -0.016497 -0.590643 -0.001311 -0.133416 0.184122 0.136136 -0.807636 0.362379 -0.188168 0.605678 -0.137582 -0.601123 -0.311991 0.401147 -0.207544 0.035319 0.013031 -0.154174 -0.706134 -0.638422 0.443493 0.128928 0.304461 0.219956 -0.249586 -0.211113 -0.215022 -0.201800 -0.196193 0.144880 -0.031666 0.333114 0.588103 -0.672173 0.536935 -0.061980 0.138590 -0.505397 -0.239451 -0.322821 0.148644 1.370109 0.337080 -0.647044 1.082311 -0.169701 -0.100607 0.000259 -0.773249 -0.135962 -0.064491 -0.433435 0.009199 -0.645117 1.264497 0.141701 0.068802 -0.506833 -0.033744 -0.079142 0.099356 0.226374 -0.251925 0.613297 -0.440080 0.526292 -0.328065 0.147512
下 0.446984 0.604133 -0.191105 0.181194 -0.189717 0.314554 -1.043519 -0.128206 -0.450558 0.627371 -0.467549 0.155768 -0.827966 -0.505869 -0.769374 0.401561 0.443217 -0.786948 0.643853 0.000016 1.239442 -0.296063 -0.400391 -0.591552 0.020701 -0.181755 -0.070282 0.005754 0.200061 0.407599 -0.059657 0.281894 0.310473 0.408995 -0.283300 0.715819 0.058406 -0.270052 -0.054186 -0.018871 -0.251278 0.007501 0.148935 -0.188605 -0.752492 0.209228 0.457965 0.208122 -0.085137 -0.496113 0.124436 0.012684 0.443274 0.480479 0.239439 0.049904 0.065179 0.452527 0.543281 0.241676 0.156089 0.090389 0.208768 0.498281 0.685367 0.240859 0.015304 -0.273175 0.090313 0.024263 0.588092 -0.082053 0.595654 0.986431 0.511572 -0.109933 -0.373190 0.049948 -0.083252 0.478917 -0.334299 -0.507397 0.204474 0.058342 0.460589 0.192532 0.988405 0.089448 0.160259 0.286883 0.230803 -0.126746 0.233030 0.465164 -0.528167 0.219455 0.177662 0.256929 0.466942 -0.001936
部 0.249691 -0.430254 0.026294 0.631738 -0.507567 0.220486 0.167367 -0.496377 -0.263399 -0.004495 -0.529004 -0.640438 -0.318661 0.463928 -0.246283 0.627388 0.218688 -0.167672 -0.315074 -0.534320 0.416652 -0.206492 -0.409997 -0.346637 -0.005189 0.206133 -0.421015 0.299394 0.687023 0.659872 0.785954 0.283605 -0.209644 -0.367137 0.451529 0.460701 0.469511 -0.212701 0.271002 0.480076 -0.420432 0.506570 -0.190951 -0.344088 -0.810253 -0.261883 -0.296886 -0.367470 -0.096975 -0.497964 -0.689313 -0.274202 0.153337 0.418246 0.154784 0.498958 -0.617180 0.465760 0.342100 -0.007935 0.282926 -0.250648 0.848807 -0.288654 0.444294 -0.384382 -0.094565 -0.006768 0.185978 0.106468 0.713428 0.226400 0.462434 0.239232 -0.579222 -0.138239 1.503606 0.471428 0.127683 -0.298121 0.443304 0.368176 0.402512 -0.298277 -0.356032 0.598919 0.910880 0.065088 -0.334320 -0.696023 0.004344 0.312099 -0.306415 0.357631 -0.559823 -0.311622 -0.125019 -0.992975 0.235376 0.461634
t -0.649517 -0.182506 -0.239296 0.508457 0.292427 0.389875 0.430293 -0.200917 0.021932 0.444555 -0.240782 0.788244 -0.684135 -1.130801 -1.037375 0.116960 0.280121 0.372774 -0.654202 0.490308 0.130812 -0.179735 -0.406477 -0.218559 0.100618 -0.167393 0.469925 0.106622 0.027068 0.316099 -0.458259 0.137203 -0.076974 1.011255 0.337561 -0.186511 0.354898 -0.685720 0.447395 0.507423 -0.338325 0.281903 -0.026471 -0.231997 -0.352604 -0.605461 -0.130054 -0.420324 -0.086934 -1.333565 -0.552509 -0.277631 0.048660 0.849359 0.648091 0.080584 0.539421 -0.881699 -0.663814 0.269333 0.115662 0.991292 0.017889 -0.335029 0.667624 -0.646834 0.520798 -0.013076 0.124780 0.058923 -0.176067 -1.226792 0.485869 -0.163564 0.074243 -0.881693 0.667973 0.772655 0.273168 0.310357 0.447845 -0.390949 -0.225713 0.527211 0.945365 0.074972 0.037175 0.235459 0.872875 0.072257 -0.152119 0.119832 0.777179 0.628826 0.344361 0.298802 0.674881 0.424222 0.436767 0.233019
者 0.295987 -0.645186 0.809367 -0.285262 0.164885 0.736034 -0.993617 0.040390 -0.058415 -0.251572 0.632910 0.017530 -0.000631 -0.051554 -0.341568 -0.359505 0.395778 -0.467901 0.286900 -0.244297 -0.788447 -0.339170 -0.361586 -0.032899 -0.587032 0.146741 0.224680 -0.201670 0.020054 -0.068037 0.120852 0.156935 -0.043503 -0.045513 -0.082620 0.240155 0.487813 -1.077132 -0.282088 0.202953 -0.490341 0.616008 0.526618 -0.216681 -0.064379 -0.086291 -0.742656 -0.635308 0.182968 -0.056876 -0.478012 -0.750182 -0.062552 -0.388243 0.020824 -0.445545 0.019305 0.056263 0.363983 0.568333 -0.314432 -0.319997 -0.080916 0.548765 -0.017063 -0.744685 -0.248445 -0.329139 -0.389683 -0.198318 -0.048620 -1.116470 0.277572 0.943036 -0.659279 -0.151980 0.100237 -0.072713 0.068742 0.280614 -0.388897 -0.925342 0.549975 0.361395 0.100079 -0.408439 0.864473 -0.118102 -0.242506 -0.123952 0.094798 -0.032600 0.318690 -0.461721 -0.421467 -0.290189 -0.031024 0.026142 -0.039603 -0.204775
新 -0.638518 -0.790506 -0.209929 0.151108 -0.616734 0.277464 -1.143881 -0.700495 -0.484688 0.290783 -0.101127 -0.267704 -0.348376 0.371494 -0.408481 -0.203404 0.117746 0.282763 0.160376 -0.306058 0.606280 0.474469 -0.608733 0.128045 -0.270278 -0.229904 0.335710 0.292520 0.377927 0.482073 0.383163 -0.647954 -0.357035 0.111817 -0.216970 -0.093305 0.658005 -0.254037 -0.339237 0.176017 -0.680618 0.675480 -0.024663 -0.286282 0.081938 0.054268 -0.075993 -0.316778 0.265955 -0.374743 -0.086806 0.426871 -0.178936 0.548215 -0.706062 0.135297 -0.410911 0.112433 0.499885 0.187945 0.091998 -0.476067 -0.295891 -0.077419 0.396454 -0.591756 0.399144 -0.507411 -0.305649 -0.109114 -0.416189 0.381896 0.425836 0.435637 -0.183029 -0.405793 0.489072 0.327370 -0.175413 0.872517 0.518589 -0.252717 -0.239929 0.356287 0.901776 0.301443 1.349546 0.438950 0.171171 -0.332894 -0.185613 0.335345 -0.608451 -0.093776 -0.105226 -0.245643 0.708455 0.039131 -0.478047 0.517463
也 0.092883 -0.111994 -0.184793 -0.264246 -0.424089 0.087539 -0.265769 -0.282239 0.086020 0.189040 0.020412 -0.228107 -0.777528 -0.347734 -0.521017 0.357025 0.570942 -0.119386 0.030855 -0.085626 0.136953 -0.191917 -0.633326 -0.763641 0.485467 0.863218 0.050768 -0.045144 0.009707 -0.148907 -0.236915 -0.123977 0.025611 0.200119 0.218705 0.184353 0.133783 -0.176984 0.166693 0.087445 0.195719 0.168632 -0.559325 -0.306534 0.055485 0.038366 0.540052 -0.200534 -0.183727 -0.017812 -0.172402 0.314092 0.141540 0.431317 -0.363580 -0.062188 0.205371 -0.012987 0.433557 0.072576 -0.129184 0.659795 -0.039322 -0.135728 0.603685 -1.098738 0.359665 -0.027060 0.338172 -0.096627 0.097785 -0.213963 -0.109229 0.775091 -0.373268 -0.192591 0.246017 0.173168 -0.211864 -0.590284 -0.423372 -0.620123 0.094552 -0.142209 -0.035826 0.135660 0.342477 0.423642 -0.113204 -0.005845 -0.074653 0.098259 0.090747 -0.216544 -0.075471 0.322296 0.147138 -0.079267 -0.036186 0.020240
游 -0.360929 -0.369266 -0.012797 -0.042413 -0.759881 0.201468 -1.089336 0.590672 -1.138134 0.050065 -0.444731 -0.263098 -0.621233 -0.571922 -0.041202 0.403776 0.647399 -0.333281 0.054321 -0.239328 -0.083770 0.142881 0.323573 -0.376267 -0.394241 -0.558023 -0.904792 -0.107946 -0.201787 0.550864 -0.832033 -0.643272 0.146216 0.866715 0.102470 -0.335510 -0.182625 -0.301445 0.235761 0.559549 -0.310650 -0.400488 -1.031153 -0.901607 0.650649 -0.398304 0.516185 -0.233739 0.049046 0.574358 -0.545275 -0.412337 -0.028488 0.059893 -0.366746 -0.175900 -0.494585 -0.767016 0.562542 1.102877 1.206357 0.508667 -0.129659 0.350010 0.678542 -0.500106 0.283932 0.022418 0.315183 -0.605521 -0.102156 -0.454137 0.594951 0.424147 -0.201429 -0.321704 0.695114 0.578795 0.074254 0.208949 -0.166243 -0.170708 -0.809220 -0.192537 0.637892 -0.072870 0.499610 0.190398 0.513228 -0.388921 0.194902 0.399879 -0.308355 0.615959 -0.354614 -0.113042 -0.193112 -0.772779 0.247717 0.525979
赛 -0.314682 0.068140 -1.033936 -0.427585 -0.421428 0.230813 0.216960 0.034949 0.204397 0.658651 -0.615721 0.655395 0.211547 -0.237040 -0.998396 -0.263489 0.344778 -0.446467 -0.320051 -0.438158 0.301468 0.302516 -0.474299 -0.941598 -0.681664 0.137905 0.744102 0.339760 0.087881 0.525781 0.121594 0.313535 0.138604 0.624984 0.376440 -0.281033 -0.658947 -0.435505 -1.008965 0.106124 0.500173 -0.065020 -0.050721 0.435636 -0.584452 0.915459 -0.365903 0.691128 -0.619392 0.200092 -0.764779 -0.775916 0.205159 0.892972 0.500009 -0.189288 -0.301052 -0.073006 0.209763 -0.558798 0.285072 0.333582 -1.069030 0.253632 1.181243 -0.432558 0.349070 0.055973 -0.418710 -0.703784 0.354789 0.112782 0.041351 1.267670 0.151598 -0.749360 0.091071 -0.345611 0.147858 -0.096179 -0.629867 -0.676578 0.112473 -0.936145 0.510083 -0.177675 0.925087 0.228678 0.048083 -0.556648 -0.064203 -0.272314 -0.387869 0.435513 -0.297684 1.537272 -0.320366 -0.235701 -0.138339 -0.076298
卡 0.758645 -0.700402 -0.569621 -0.319869 -1.041377 0.961393 0.195428 -0.476448 0.355643 -0.051993 0.278173 -0.307757 0.229742 0.088267 -0.591483 0.277222 0.971236 -0.129193 -0.681472 -0.267873 -0.309532 -0.088978 0.246392 -0.196423 0.151919 0.497736 0.855630 -0.437813 0.811414 0.633587 -0.166133 0.666970 0.072298 -0.016703 0.014172 -0.068670 0.402127 -0.224359 0.577664 -0.432481 -1.041311 0.088746 -0.151157 -1.160166 -0.084489 -0.197412 -0.014724 -0.238447 -0.487092 0.610289 0.280975 0.241177 0.193773 -0.593834 0.223360 -0.603655 -0.734853 -0.251997 0.286717 -0.249134 0.405855 0.175415 -0.851022 0.697046 -0.100871 -1.182118 1.035241 1.137683 0.317025 -0.385765 -0.095365 -0.409180 -0.378725 0.579962 0.348459 0.725249 0.739576 0.232350 0.533267 0.227199 0.117820 -0.437715 0.695793 0.242259 0.423579 0.786445 0.316889 -0.050270 -0.207436 -0.486004 -0.670452 -0.031480 0.508677 -0.100115 -0.306874 -0.978053 -0.519576 0.506585 0.286193 0.759743
多 -0.096120 0.055230 -0.532812 0.317265 0.416474 0.446071 -0.539877 -0.142666 -0.309845 0.174787 -0.233416 -0.419526 -0.494468 0.341680 -0.709239 0.366695 0.557999 -0.061504 -0.390626 -0.231525 0.180951 -0.224365 -0.410718 -0.728918 0.157055 0.462804 0.156680 0.338542 0.394544 -0.319433 -0.004623 -0.973661 0.529060 0.134918 -0.137503 -0.049403 0.339634 0.134151 0.210477 -0.165292 -0.632706 -0.162231 -0.108359 -0.655790 0.749199 0.014059 0.421011 -0.332426 -0.401128 0.292577 -0.186549 0.428696 0.410759 0.300878 -0.641427 0.246433 0.336582 0.176410 0.715257 0.167762 -0.068794 0.181866 -0.079076 0.017587 0.232988 -1.053133 0.431890 -0.212689 0.411169 -0.349911 -0.181569 -0.610911 0.377651 0.459970 -0.351552 -0.245842 0.003536 -0.061100 0.623305 -0.712098 -0.277383 -1.414268 0.426466 -0.210604 0.470750 -0.290547 -0.194153 0.249428 -0.069297 -0.724619 -0.300807 -0.036520 -0.172539 -0.368022 -0.251733 -0.000576 0.064662 -0.351260 -0.207093 0.072202
之 0.513680 -0.531099 -0.067892 0.106351 -0.106287 0.172726 -0.848296 0.337699 -0.160925 -0.022904 0.499420 -0.352953 -0.013015 -0.231995 -0.840274 -0.729553 -0.783003 0.254508 -0.272954 0.533529 0.580299 0.107655 -0.614813 -0.415773 -0.116004 -0.038866 -0.492822 0.164884 -0.409046 0.481438 -0.380324 0.269319 0.019360 0.311181 -0.305605 -0.358092 0.257220 0.030969 -0.196088 0.614037 -0.153510 -0.067234 -0.168593 -0.057889 -0.002675 0.115786 0.223388 -0.076344 -0.124248 0.181746 -0.110597 -0.318603 0.429344 0.766730 -0.466004 -0.099704 -0.513722 -0.048297 1.022318 0.980677 0.161677 0.303426 -0.075336 -0.189373 0.132862 -0.086496 0.648089 -0.579106 0.458913 0.004224 0.178409 -0.470181 0.433266 -0.262700 0.165080 0.541969 0.429779 -0.009083 0.034529 0.215531 -0.556398 -0.079952 -0.034672 -0.611833 0.644929 -0.009438 0.395454 -0.128572 -0.016318 -0.128668 -0.630901 0.485802 -0.077351 0.149067 -1.061373 0.328198 0.477811 0.068955 -0.309932 -0.090471
战 0.366953 -0.641157 -0.642876 0.452359 -0.118225 -0.168459 0.025197 -0.047544 -0.715594 -0.679626 -0.211571 -0.003267 -0.501195 -0.347388 -0.618957 0.387280 0.011469 0.736141 0.179257 -0.297452 0.394706 0.024628 0.104474 -0.968586 -0.292413 -0.532932 -0.145400 0.217909 0.739309 0.924769 0.376952 0.028384 -0.253963 1.170098 0.099934 0.214872 0.398132 0.703909 -0.421459 0.785006 0.245289 0.067775 0.197651 0.036320 0.143535 -0.280964 -0.551848 0.439758 0.043472 0.986686 -0.485651 -0.901021 -0.487966 0.883196 0.546764 -0.223167 -0.499359 -0.318650 0.210438 0.182265 -0.333556 0.130980 -0.382872 -0.296719 0.791372 -0.203413 0.144726 0.138703 1.005298 -0.165447 -0.442422 -0.115915 0.150860 0.578579 0.351163 -0.073697 0.925119 0.082684 -0.154357 -0.358998 -0.424408 -0.226883 0.521629 -0.854483 0.102678 -0.075964 0.044842 0.037932 -0.169101 -0.721917 -0.408882 -0.060686 -0.610769 0.894881 -0.933612 0.651955 0.222781 -0.479671 0.132747 -0.337457
海 -0.113501 -0.501033 0.032632 0.140958 -0.130507 -0.183849 -0.451428 -0.345719 0.788786 -0.657743 -0.216521 -0.044497 0.222230 -0.396407 -0.344269 0.496057 0.810558 -0.017075 -0.538404 0.445722 0.047339 -0.080912 -1.372167 -0.837008 0.194165 0.520439 -0.040152 -0.344931 0.199706 -0.476954 0.281789 -0.206392 -0.646442 -0.477654 -0.220375 0.440869 0.987717 -0.380243 -0.061342 0.389084 -0.052194 0.166305 -0.758345 -0.572964 -0.432112 -0.033261 -0.078854 0.200259 -0.778537 0.113972 -0.260100 -0.696419 -0.323072 0.172138 -0.313870 -0.608233 -0.233984 0.293307 0.227598 -0.323132 -0.070860 0.175153 0.045188 0.465656 0.516247 -0.899163 0.087002 -0.941945 -0.181261 0.535073 0.086371 0.294869 -0.239643 -0.685780 -0.081943 0.551302 0.121310 0.201164 -0.269166 0.046486 -0.311433 0.212407 -0.655054 -0.207116 0.149955 0.279074 0.539335 -0.537187 0.494916 0.500178 -0.306261 -0.066925 -1.018865 0.798392 -0.348732 0.010487 0.311929 -1.496670 -0.115351 -0.836849
现 -0.005558 -0.451304 -0.381539 -0.219588 0.025089 -0.226945 -0.284402 -0.860315 0.385404 0.071868 -0.065962 0.080601 -0.170425 -0.093508 -0.472923 0.107300 -0.440947 0.135193 0.359062 -0.702925 0.067723 -0.555225 -0.551242 -0.560980 0.305724 0.654769 0.369473 0.469225 0.378821 0.358190 -0.083825 0.242042 -0.220025 0.097699 -0.147238 0.435213 -0.411800 -0.468628 0.004856 -0.050801 -0.363069 0.436863 -0.248027 -0.382982 0.049662 0.070528 0.169890 0.054563 -0.198010 -0.180515 0.158986 0.540937 0.163814 0.584699 -0.300312 0.165961 -0.110560 -0.027962 0.239168 0.146352 0.107417 0.572745 -0.627459 0.379231 0.234429 -1.088455 0.739904 -0.212761 0.532541 0.640193 -0.302372 -0.452270 -0.091155 0.901288 0.001445 0.087225 0.656854 0.445064 -0.133763 -1.106436 -0.114169 -0.758631 0.014687 0.460395 -0.047371 -0.077586 -0.182782 0.152042 0.397876 0.224702 -0.298674 0.374945 0.300703 0.235645 0.159847 0.342570 0.687073 -0.200330 -0.324561 0.318438
最 -0.383088 -0.514125 -0.169221 0.072415 0.243000 0.100598 -0.295573 -0.000244 -0.308609 0.144244 0.046682 -0.337083 -0.317824 -0.160120 -0.760927 -0.657876 0.352489 -0.034736 -0.180249 -0.227759 0.388393 0.307871 -0.779272 -1.023293 -0.127549 -0.429028 0.967209 0.008774 0.307990 0.129182 -0.515972 0.108109 0.087290 0.375512 0.543753 0.033173 0.241479 -0.245377 -0.503068 0.586456 -0.694731 0.352936 -0.285780 0.044423 -0.281133 -0.152039 0.519003 -0.457447 0.522597 -0.360535 -0.249909 0.448168 -0.167565 0.522004 -0.764047 -0.043757 0.302909 0.136300 0.899690 0.371553 0.339775 0.148844 -0.373604 -0.195409 0.134390 -0.397759 0.249668 -0.121492 0.039742 -0.254423 -0.393426 -0.525946 0.056525 0.521974 0.042199 0.359581 0.550836 -0.421716 -0.194009 0.535841 -0.544782 -0.678364 0.142525 -0.522811 0.105553 -0.035780 0.746077 0.188716 0.052143 -0.408344 -0.024939 -0.117766 -0.069015 0.260719 0.251548 0.293612 -0.265750 -0.398441 -0.402449 0.364329
月 0.281961 -0.074387 0.581015 -0.273688 -0.414009 -0.219334 -1.210287 -0.437201 0.385917 -0.003427 0.190265 0.416655 -0.100670 -0.319927 -0.302407 1.034280 0.335415 -0.269206 -0.139978 -0.120504 0.139834 0.669720 0.099860 0.095102 -0.583660 0.229436 0.014605 0.630445 0.336477 0.195276 0.329835 0.142128 0.728252 0.104615 0.073711 -0.386241 0.555547 -0.054350 -0.755866 0.843093 -0.168270 0.075860 -0.031524 -0.837544 -0.037278 0.759383 0.186355 -0.265840 0.247787 -0.229590 0.311116 0.574729 0.673233 0.086980 -0.412293 -0.300154 -0.374747 0.661922 0.043919 -0.110101 -0.531612 -0.501991 0.378268 0.725045 0.252819 -0.588851 0.325914 -0.275546 0.822744 -0.170800 0.329777 -0.222384 0.176820 0.503256 0.783668 -0.564701 0.464959 -0.172281 0.349964 0.674489 0.419342 -0.266947 -0.061554 -0.041814 0.623556 0.193925 1.124022 0.023866 -0.084263 1.316910 -0.279508 -0.518718 -0.115205 0.857223 -0.445649 0.021045 0.067373 -0.404072 0.328418 0.281237
业 -0.357988 -0.623924 0.309289 -0.769169 0.009708 0.409156 -0.405415 -0.339172 -0.356526 0.466641 0.077678 -0.347346 0.059754 0.948213 -0.725202 0.186373 0.149646 -0.906336 -0.190736 -0.528893 0.122471 -0.043771 0.199862 -0.477695 -0.049501 0.087416 -0.381311 -0.361462 0.118025 -0.045989 -0.337787 -0.653929 -0.557624 0.621191 -0.553667 1.088122 0.438468 -0.139827 0.096714 0.647081 -0.520052 -0.500431 0.170071 -0.713145 -0.274397 -0.357652 0.154826 0.048597 0.022458 -0.486026 -0.041892 -0.409329 0.183289 -0.313368 -0.835981 -0.169653 -0.759336 0.700301 0.253292 -0.700039 -0.002158 -0.106366 -0.553458 -0.290215 0.021423 -0.658873 -0.145669 0.425996 0.434113 0.130093 0.403885 -0.261828 0.246194 0.319427 0.134383 -0.441782 0.606683 0.266697 -0.412975 -0.401277 -0.206370 -0.408097 0.925113 0.711919 0.110802 0.518267 0.202522 0.518149 0.173856 -0.360848 -0.057027 0.328630 0.509963 0.874800 -0.425857 -0.281429 0.183175 -0.017700 0.140864 0.856383
i -0.358496 -0.094653 -0.120177 0.212675 -0.209004 0.679872 0.924621 0.162740 -0.178011 -0.047122 0.088581 0.740884 -1.259773 -1.081190 -0.828208 0.326165 0.493672 0.216208 -0.662461 0.176079 0.369245 -0.127074 -0.672668 0.106258 0.350745 -0.643954 0.109464 0.531584 0.268547 0.399002 -0.804439 0.252473 0.100509 1.008650 0.767421 -0.381371 0.413596 -0.925449 0.262749 0.572457 -0.012377 0.178610 -0.364215 -0.059237 -0.335825 -0.488410 -0.544345 -0.282967 0.186265 -1.125966 -0.459208 -0.096158 -0.202844 0.634434 -0.101688 -0.270189 0.328112 -0.761345 -0.438589 0.641579 0.007739 1.179098 0.129072 0.116029 0.311904 -0.621685 0.000620 -0.350609 0.248757 0.390752 -0.293289 -0.958960 0.166691 -0.294897 0.392044 -0.502954 0.751630 0.830501 -0.183936 0.237823 0.031826 0.340459 0.536171 0.837062 0.526269 -0.268332 -0.096087 0.177197 0.650005 0.013558 -0.634194 -0.371444 0.738951 0.709651 -0.043973 0.087457 0.385894 0.639773 0.664510 0.309441
4 0.910094 -0.703655 -0.391219 0.150463 -0.018640 -0.089321 -0.545793 -0.680670 0.578048 -0.121255 -0.209141 0.451264 -0.500945 -1.351806 -0.614272 0.423470 0.109017 0.203836 -0.675106 -0.150588 0.480087 0.515621 -0.058813 -0.507960 -0.279014 -0.047376 -0.023624 0.299114 0.287760 0.627834 0.634504 -0.067666 0.276728 -0.008316 0.176366 0.172272 0.335728 0.680695 -0.268191 1.098459 -0.094259 -0.371195 0.477513 -0.188697 0.086817 0.829852 -0.179379 -0.041206 -0.024649 0.119086 -0.030611 0.226534 0.400166 0.126500 0.100546 0.100686 -0.294702 -0.124110 0.017002 -0.003033 0.154527 -0.184010 0.565044 0.662143 0.477330 -0.425782 -0.104843 0.157824 0.758648 -0.492677 -0.167526 -0.501527 0.195573 0.519340 0.661150 -0.477171 -0.105029 0.392111 0.639961 0.193695 0.006668 -0.684742 0.716361 -0.778934 0.912898 -0.002900 0.331671 0.324586 -0.105399 0.609250 0.031573 -0.185042 -0.436323 0.737471 -0.078891 0.761518 -0.057112 -0.351909 0.261098 0.374954
后 -0.041369 -0.162792 -0.132631 0.072694 -0.477212 0.503247 -0.705254 0.523600 -0.083051 -0.341110 0.231787 0.060653 -0.557160 -0.034247 -0.512234 -0.122564 -0.387224 0.215285 -0.028823 -0.144956 0.355269 -0.279831 -0.253604 -0.520744 0.054306 0.350193 -0.002726 0.323243 0.348657 -0.012548 -0.352905 0.852739 0.082021 0.336697 0.028926 0.282077 0.188556 -0.332255 -0.422392 -0.253875 -0.059517 0.288060 -0.006221 0.104405 -0.222412 0.012343 0.106506 -0.171381 -0.173373 -0.038986 -0.334382 -0.090619 0.710530 0.521878 -0.319016 -0.589860 -0.233727 0.232419 0.746232 0.263591 -0.060196 0.106155 0.555139 0.365275 0.786980 -0.209004 0.409379 -0.052302 0.065740 -0.360219 0.368735 -0.359836 0.209605 0.702423 0.465674 0.585330 0.622995 -0.119335 -0.368309 -0.235112 -0.333729 -0.592981 0.389293 -0.335350 -0.068627 0.048318 0.604130 -0.203891 -0.360412 0.192200 -0.060095 -0.047179 0.237345 0.291972 -0.719778 0.295427 0.549138 -0.225557 -0.104979 0.166010
分 0.720019 -0.238228 0.057862 0.513086 -0.038488 0.085867 0.089244 0.260311 0.439649 0.644958 0.142201 -0.573288 -0.124731 0.557699 -1.328655 0.404459 0.400733 -0.044270 -0.564302 -0.007303 0.252647 -0.053820 -0.014451 -1.100045 1.129804 0.155891 0.200736 -0.173562 -0.373139 0.420781 0.497619 0.618557 -0.259797 -0.269438 0.392465 -0.034436 0.174756 0.004682 -0.049693 0.706894 -0.246004 -0.223960 0.848522 -0.838740 -0.840006 -0.108089 0.137929 -0.235270 -0.249194 0.036758 -0.844574 -0.054696 0.470917 0.142604 -0.246572 0.327941 -0.696893 0.629368 0.305391 -0.251477 0.191491 0.442400 0.100812 -0.310875 0.148626 -0.239982 0.378524 0.322092 0.383351 -0.497946 0.754529 -0.511029 -0.088909 0.433496 -0.385485 -0.780064 -0.120556 0.156408 0.217606 -0.563971 -0.356404 -0.334905 0.648879 -0.281765 -0.194803 0.073132 0.713946 0.557158 -0.017329 0.483709 -0.325585 -0.152652 0.379044 0.550541 0.155053 0.887955 0.136232 -0.464142 0.152080 0.836101
用 0.364910 -0.740681 0.061397 -0.502412 -0.303261 0.228344 0.006180 -0.337618 0.185205 -0.092823 0.649829 -0.334015 -0.163225 -0.305422 -0.641728 0.131699 0.172553 -0.645933 -0.058169 -0.439423 -0.408208 0.352900 0.421136 -0.199918 0.576009 0.382729 0.578558 -0.394964 0.680559 0.245764 -0.236046 0.017081 0.375435 0.250010 -0.122547 0.437249 -0.185682 -0.442952 0.535820 -0.324881 -0.692252 0.368122 0.035950 -0.992430 -0.136185 0.509523 -0.054362 -0.244179 -0.359237 0.644098 0.122582 -0.066691 -0.037970 0.132584 -0.102517 -0.182789 -0.839599 0.089662 0.416455 -0.791503 0.135335 0.294151 -0.010424 0.430819 0.042459 -1.004072 0.436413 0.081947 0.283495 -0.745863 -0.280395 -0.252961 0.228902 0.424331 -0.427434 0.527271 0.208742 0.714493 0.604515 0.249719 -0.178434 -0.174527 0.116121 0.411646 0.430344 0.006863 0.456255 -0.054041 -0.078712 -0.341561 -0.525890 0.263138 0.776837 0.191626 -0.297163 -0.710724 -0.371195 -0.293676 -0.482744 0.460416
可 -0.065043 -0.314469 -0.516618 0.034612 -0.290586 0.281984 -0.261597 0.237853 0.128356 -0.200797 -0.040590 -0.413399 -0.751729 0.288526 -1.288037 0.065415 0.277186 0.017513 0.085756 -0.451757 0.277093 0.005169 -0.219350 -0.367072 0.510182 0.338816 -0.264880 -0.327318 -0.144948 -0.355196 -0.759723 0.315135 0.167008 0.453411 -0.308991 0.411243 0.881581 0.339236 0.444470 -0.355150 -0.250020 -0.292802 -0.496539 -0.645393 -0.257242 0.019769 0.648991 -0.698885 -0.540323 0.384586 -0.364394 0.601285 0.191610 0.343189 0.517053 0.196945 -0.034222 -0.069072 0.395429 -0.270933 -0.179534 0.323591 0.138499 0.440958 0.911041 -0.597899 0.182191 -0.055676 -0.231637 -1.129900 -0.182347 -0.483489 0.081883 1.112369 -0.232044 -0.097739 0.267953 0.259834 -0.501941 -0.377952 -0.811853 -0.344197 -0.483679 -0.198617 -0.252996 -0.829615 0.612358 -0.124495 0.086440 0.295083 -0.360440 0.348109 -0.005989 -0.055645 -0.101354 -0.045816 0.187312 -0.223472 0.116438 0.174334
开 -0.193460 -0.838722 -0.023969 -0.720304 -1.066126 0.269083 -1.290265 -0.378428 -0.363699 0.345510 -0.106013 -0.086668 -0.671152 0.159047 0.181378 0.083614 0.262874 0.480127 0.107426 -0.222707 0.258749 0.185827 -0.470011 -0.484622 -0.249343 0.539445 0.601538 -0.028831 0.343395 0.416910 -0.768182 0.480119 -0.023630 0.630008 -0.452823 -0.152659 -0.204798 -0.363566 -1.051935 -0.455298 0.361104 -0.136378 -0.570469 -0.159609 0.260567 -0.145096 -0.101111 -0.122872 -0.035707 -0.666243 0.319127 -0.002655 0.220834 0.502608 -0.629638 -0.116415 -0.424779 -0.019426 0.238001 -0.270423 -0.168573 0.640592 -0.045299 0.323464 0.149585 -0.256554 0.553409 -0.267229 0.788394 -0.166995 0.150520 -0.424237 -0.076406 0.089602 0.043055 -0.059075 0.323253 0.483177 -0.305363 -0.726186 0.122047 -0.925155 0.166318 -0.287799 0.557923 0.952603 0.098115 0.258567 -0.307279 -0.029649 0.115080 -0.183307 0.706140 0.461748 -0.750765 0.407082 0.465985 -0.685356 0.657837 -0.235181
n -0.280523 -0.406651 -0.083052 0.163232 -0.017895 0.807886 0.752278 -0.239454 -0.067600 0.455191 0.068814 0.915278 -0.860557 -1.176613 -0.540235 -0.107882 0.349266 0.130637 -0.498208 0.352199 0.765122 -0.208932 -0.678189 0.210534 -0.032964 -0.356150 0.117366 0.471920 -0.004491 0.360095 -0.521734 0.355132 0.368726 1.012781 0.854607 -0.321224 0.083160 -1.008806 0.581228 0.626686 0.257069 0.390097 0.103541 0.049567 -0.336725 -0.498067 -0.432849 -0.172022 -0.261141 -1.359837 -0.474044 -0.331180 -0.318925 0.763142 0.054313 -0.174395 0.446719 -0.820993 -0.595276 0.706354 0.253603 1.038788 0.059089 -0.118151 0.435772 -0.723819 -0.100240 -0.551021 -0.155902 0.351969 -0.177918 -0.825541 -0.041928 -0.354733 0.166360 -0.877598 0.468066 0.671262 -0.009245 0.743898 -0.011334 0.131458 0.508386 0.439125 0.840866 -0.262508 -0.083891 -0.231221 0.310356 -0.000969 -0.379320 -0.303954 0.586871 0.569509 -0.294655 0.259996 0.217234 0.201278 0.314259 -0.060096
生 0.440729 -0.740940 0.451451 0.189138 -0.495861 0.620278 -0.520051 -0.118547 0.250960 -0.270157 0.623094 -0.503911 -0.011309 -0.365356 -0.815798 0.281262 -0.553366 -0.231000 -0.297711 0.678375 0.364795 0.035899 0.111272 -0.255319 -0.277559 0.281931 0.307170 0.270667 -0.342577 -0.647382 -0.245451 -0.325210 -0.349170 -0.116208 -0.286685 0.402324 0.448175 -0.902880 0.103226 0.453498 -0.228856 0.155397 -0.146471 0.063664 0.029005 0.115869 -0.178308 -0.346181 0.469418 -0.030104 0.163046 -0.226484 0.069390 -0.252440 -1.281209 0.395066 -0.596434 0.781077 0.275439 0.301291 0.088819 0.076575 0.311139 0.347771 0.865462 -0.593629 -0.247997 -0.249139 0.260587 0.019265 -0.161892 -0.261205 0.932579 0.788033 0.117698 0.842424 0.797325 0.244255 0.001291 -0.782294 -0.128314 0.120092 0.882680 0.629835 0.906333 -0.217019 -0.187259 -0.251367 0.713523 -0.064324 0.667679 0.329816 0.219386 0.267248 -0.634870 0.603571 0.519564 -0.197625 0.096719 0.329271
s 0.103877 -0.278584 -0.612286 -0.265103 -0.168026 0.986705 0.799384 -0.209341 0.044874 -0.017702 -0.440376 0.807658 -0.840174 -0.713291 -0.926938 0.286942 0.885654 0.269146 -1.097593 0.626309 0.824754 -0.297400 -0.526471 0.236581 -0.231205 -0.380503 0.484942 0.349349 0.596122 0.485920 -0.247918 -0.235269 0.352946 0.089875 -0.218611 -0.764304 0.282841 0.195957 0.568142 0.064800 0.189030 0.074640 0.439674 -0.339186 -0.551080 -0.403195 -0.407092 -0.434182 -0.343254 -1.000588 -0.449673 -0.163270 0.334113 0.440005 0.082939 -0.261597 0.156203 -0.339434 -0.812848 0.799570 0.649635 1.185594 -0.443040 0.377326 0.360352 -0.786431 0.449088 0.172861 0.407708 0.691287 0.252385 -1.335130 -0.083376 -0.572064 0.630204 -0.812477 0.524003 0.348290 0.265808 0.375499 -0.118562 -0.020345 0.260378 0.654502 0.362982 -0.287750 0.097129 0.167156 0.956911 -0.525422 -0.434754 -0.921230 -0.307121 0.902149 -0.265179 0.396029 -0.394405 0.731819 0.873899 0.211210
们 0.029428 0.530135 -0.128323 -0.695975 -0.657274 0.381712 -0.572635 -0.145034 0.252334 -0.154072 0.019411 -0.084609 -0.307757 0.130796 -0.917550 -0.279315 -0.593135 -0.573563 0.820133 -0.095289 0.092237 0.186075 -0.344489 -0.763028 -0.153270 0.575114 0.198471 -0.342260 -0.068016 0.304741 0.247115 -0.620534 -0.375796 0.089877 -0.330992 1.230921 0.016117 -0.336605 0.439880 -0.157755 -0.008092 -0.082431 -0.378093 -0.050479 -0.250766 0.140975 0.335214 -0.256500 0.013397 0.298038 -0.301147 -0.008868 0.116565 0.692552 -0.653633 0.131188 0.748566 -0.643771 -0.019388 -0.103837 0.073552 0.328913 0.634920 -0.278619 1.333457 -0.841585 0.114426 -0.376894 0.663815 0.344258 0.448685 0.150832 0.417944 0.502241 -1.493481 -0.430729 0.669929 -0.001895 -0.338357 -0.141875 -0.657350 -0.548124 -0.094857 -0.086795 0.193878 -0.326387 0.705797 -0.077592 -0.306080 0.135935 0.378967 -0.243561 0.096356 -0.176549 -0.465718 0.360116 0.014984 0.116906 0.087424 0.141297
美 0.327208 -0.291140 -0.107586 0.208009 0.100980 -0.129139 -0.144442 -0.835639 0.486769 -0.311315 -0.149097 -0.118646 -0.518567 -0.764435 -0.015123 0.434157 0.443821 -0.038327 -0.116511 -0.215605 0.380767 0.380904 -0.595372 -0.122125 -0.078935 -0.067517 -0.049983 0.546328 0.347910 0.567691 0.006249 -0.367145 -0.723357 -0.262519 0.610973 0.101910 0.407506 -0.835403 0.083127 0.586212 -0.075072 0.377218 -0.248094 -0.486793 0.298547 0.136530 0.602121 0.154253 -0.145863 -0.045099 -0.677523 0.446407 -0.211194 0.346030 -0.504984 0.171770 -0.080421 0.346418 1.021041 0.254339 -1.246078 -0.370177 0.442411 0.090847 0.936141 -0.045731 -0.138586 -0.668651 0.500016 0.422382 -0.354457 -0.781766 -0.361158 -0.129623 0.349864 0.035303 0.169974 0.506480 -1.225320 0.218515 -0.791879 -0.314257 -0.190758 -0.714524 0.141084 -0.263856 0.169152 -0.193918 0.225324 -0.448745 -0.039093 0.797770 -0.213332 0.480384 -1.053810 -0.255525 -0.549060 -0.747967 -0.460634 0.157457
6 0.500459 -0.529134 -0.074541 0.403768 0.027115 -0.039430 -0.362892 -0.576159 0.469780 0.380086 0.275501 0.719251 -0.583889 -0.667151 -0.798577 0.252522 0.055900 0.333963 -0.642289 -0.480385 0.261803 0.305241 0.117293 -0.663738 -0.093469 -0.193304 0.251305 0.339909 0.698973 0.382868 0.797779 0.154724 -0.078543 -0.163833 -0.268515 -0.149801 0.404308 -0.030536 -0.414705 1.061080 -0.154153 -0.492785 0.409714 -0.594618 0.075061 0.406538 0.123512 -0.086771 -0.181317 -0.576202 -0.153085 0.359074 0.430087 0.359856 0.246208 0.200991 -0.251971 -0.479351 0.106622 -0.318039 -0.289627 0.166851 0.655737 0.386969 -0.023347 -0.464998 -0.220272 0.361713 0.400282 -0.476011 -0.436196 -0.776539 0.203278 0.451957 0.675377 -0.626636 -0.092570 0.220028 0.615357 0.832052 0.155206 -0.833447 0.470765 -0.537658 1.049190 0.121752 0.769743 0.362078 -0.449403 0.720993 -0.477258 -0.403832 -0.191820 0.851145 0.362169 0.688785 -0.125355 -0.297240 0.052728 0.696467
成 -0.091226 -0.298022 -0.686699 -0.134841 -0.692247 0.624460 -0.053948 -0.361025 -0.156271 0.484473 0.249672 -0.094762 -0.262224 -0.181170 -0.081316 -0.181557 -0.033876 -0.361594 -0.503570 -0.446484 -0.035294 -0.618097 -0.371293 -0.440094 -0.210919 -0.458940 -0.557669 0.221225 0.365824 0.033414 0.415100 0.201130 -0.414243 0.154760 0.022603 0.314926 0.409543 -0.065808 -0.293668 0.177848 -0.366010 0.467242 -0.321343 -1.141791 -0.155934 0.307323 0.582438 -0.522107 0.251960 0.429234 -0.065692 -0.282016 0.149916 0.531353 -0.236908 0.543097 -0.166163 -0.054404 1.003302 -0.488192 -0.666886 0.108590 0.361714 -0.050299 0.362362 0.055365 0.149977 0.222617 0.422155 -0.469482 -0.719789 -0.293508 -0.342981 0.084385 -0.025137 -0.411629 0.623601 -0.286856 -0.422696 -0.066768 -0.363409 -0.724237 0.631065 -0.453802 -0.243347 0.197072 0.276048 -0.166065 -0.275791 0.081866 -0.729245 -0.191672 0.503691 0.672550 -0.569523 0.067542 0.232742 0.122243 0.107103 0.348002
比 -0.050226 -0.042182 -0.488615 -0.433311 0.020152 -0.057101 0.571256 0.218508 0.433083 0.399250 -0.825608 -0.315596 0.133833 -0.493443 -1.260860 -0.209294 0.399044 -0.318132 -0.117550 -0.073524 0.348887 -0.365849 -0.180916 -1.311178 0.315401 0.421185 0.372448 -0.339874 -0.134356 0.157746 -0.014264 -0.741399 0.046328 0.028927 0.430493 -0.037649 0.141508 0.192905 -0.464422 0.225744 -0.080825 -0.195264 -0.484480 -0.047901 -0.039665 0.709903 0.290092 0.878524 -0.415805 0.352304 -0.319044 -0.510017 0.015748 1.001497 -0.384532 0.148872 -0.078646 0.034452 -0.172288 0.139975 -0.063761 0.299686 -0.847156 -0.078067 0.742487 -0.556377 0.212790 0.405303 0.103331 -0.117342 -0.120802 -0.694037 0.159608 0.286246 0.349058 -0.771643 -0.151113 -0.413588 0.394878 0.597370 -0.820626 -0.575257 0.713206 -1.335011 0.145525 -0.124834 0.415879 0.256220 0.678569 -0.080925 -0.423449 0.197480 -0.150151 -0.073617 -0.176782 0.926452 0.520524 0.332819 -0.085995 0.255723
金 0.298646 -0.133764 -0.752951 -0.719496 -0.464028 0.443764 -0.369708 -0.415118 0.451568 0.607755 0.237246 -0.700661 0.011881 -0.569955 0.153055 -0.147832 0.044668 -0.477864 -0.185279 0.142785 0.310591 -0.407735 -0.790536 -0.169221 0.294192 0.023544 0.311596 -0.464546 0.607046 0.225469 0.548938 0.328742 -0.491285 -0.176970 -0.185877 0.607789 -0.106818 -0.547410 0.161413 0.871092 -1.067652 -0.200570 -0.223443 -0.599908 0.056707 0.337114 -0.136336 0.213166 -0.093816 -0.265635 0.014813 -0.394713 -0.003772 -0.332222 -0.271621 -0.489790 0.053058 -0.057319 -0.447418 0.062346 -0.166111 0.160593 0.238855 0.370179 -1.158965 -0.624444 0.143665 0.211980 0.081341 -0.087366 -0.575790 -0.394689 0.084838 0.372646 0.329398 0.527226 0.096236 0.610629 -0.943509 -0.407546 -0.615239 -0.486562 0.525277 0.477517 0.206071 1.035465 0.830378 0.375212 0.419262 0.163505 -0.365360 0.686896 0.760872 0.344535 -0.381511 0.177344 0.494998 -0.242359 -0.042349 0.530109
将 0.070946 -0.134004 -0.151554 -0.174729 -0.224302 0.106465 -0.454335 -0.149865 0.354481 -0.379168 0.051586 -0.049566 -0.957195 0.010541 -0.230505 0.427891 0.522448 -0.175408 0.106163 0.326266 -0.038042 0.094393 -0.335606 0.111297 -0.194290 0.506821 0.054163 0.313478 0.361758 0.291624 -0.276759 0.145059 -0.145671 0.877347 0.153583 0.184698 0.150128 -0.136388 -0.300835 0.738045 0.086586 0.292418 -0.869133 -0.586415 0.350644 -0.127709 -0.019822 -0.383838 -0.203470 -0.097882 -0.408569 -0.365605 0.275164 0.105359 -0.492999 0.051800 -0.369394 0.233280 0.426883 -0.357684 0.076913 0.175673 0.286905 -0.084379 0.940830 -0.578062 0.573728 0.237107 0.313522 -0.365383 0.336191 -0.135860 0.165937 0.398588 -0.247149 -0.630360 0.462764 0.302917 -0.236825 -0.040207 -0.172895 -0.376248 0.142586 -0.330480 -0.398085 0.070471 0.939848 -0.091425 -0.122943 0.015971 -0.055793 -0.156413 -0.070621 0.608013 -0.502178 0.206280 -0.067338 -0.011910 -0.209761 0.202011
9 0.384013 -0.122863 0.119642 -0.067076 -0.200338 0.087177 -0.695594 -0.856493 0.802713 0.264892 0.089909 0.480205 -0.433951 -1.063887 -0.658365 0.503472 0.215676 0.300214 -0.812500 -0.397386 0.398678 0.238970 0.112355 -0.320090 -0.282102 -0.213133 0.315046 0.461458 0.465479 0.188450 0.419926 0.191307 0.265668 -0.124542 0.282645 -0.030587 0.193092 0.162577 -0.617632 0.987697 -0.047547 -0.045747 0.116203 -1.004668 0.324952 1.084006 -0.158596 0.249028 0.326424 -0.690849 0.040783 0.434314 0.493374 0.144923 -0.310035 -0.177872 -0.223859 0.180851 -0.047690 -0.042227 -0.259483 -0.348489 0.611857 0.553127 0.140156 -0.515924 -0.272634 -0.012694 0.644191 -0.245549 -0.167363 -0.914430 0.004496 0.012810 0.877405 -0.689044 -0.210738 0.273701 0.212009 0.683988 -0.463745 -0.573985 0.107972 -0.300190 0.775322 0.153724 0.271383 -0.142915 -0.137895 1.199255 0.076425 -0.262654 -0.140209 1.179319 -0.442144 0.656726 0.019024 -0.410003 -0.235008 0.492086
信 0.645123 -0.429563 0.130213 -0.403891 -0.102736 0.556192 -0.273382 -0.479389 -0.003228 0.153023 0.466981 -0.356567 0.062291 -0.158567 -0.934807 0.593447 -0.021920 -0.940053 -0.149393 -0.506814 -0.073165 0.360210 0.282730 -0.181740 0.438617 0.327333 0.183682 -0.393008 0.564560 0.001948 -0.066512 -0.006784 0.317544 0.061741 -0.370965 0.830175 -0.145233 -0.066480 0.941275 -0.267195 -0.640948 0.539751 0.101803 -0.965522 -0.570847 0.273938 0.580263 0.384034 -0.524942 0.030668 0.477066 -0.163426 0.143542 -0.457402 -0.419837 -0.501129 -0.356653 0.432094 -0.143843 -0.908215 -0.066518 0.160095 0.037756 0.165773 0.289847 -1.298485 0.290795 0.045960 0.209925 -0.419618 0.331232 -0.534784 -0.117067 -0.167021 -0.050543 0.535835 0.557582 0.296428 0.940251 0.077963 0.101516 -0.227828 0.664034 0.991140 0.735926 0.680514 0.394877 0.068440 -0.057402 -0.060816 -0.668112 -0.149521 0.672276 -0.227315 -0.340994 -1.005227 -0.159808 -0.181492 -0.301219 0.488610
过 -0.289687 0.119146 -0.004139 0.324593 0.107451 0.313412 -0.314028 -0.043110 -0.398471 -0.079820 -0.182451 0.341227 -0.205047 -0.483204 -1.229654 0.596635 -0.144169 0.202891 0.287577 -0.706634 -0.346034 -0.372532 -0.614056 -1.109162 0.560638 0.728865 -0.102327 0.309004 0.783325 0.124489 -0.375060 0.214811 0.194450 -0.236730 0.108569 0.178426 -0.112476 0.216486 -0.247868 0.096785 -0.372868 -0.197209 -0.471550 -0.077863 -0.365718 0.135170 -0.231079 -0.153049 -0.195402 0.492331 -0.157238 0.348376 -0.083853 0.397138 -0.088107 -0.539954 0.178234 0.105888 0.193778 -0.355487 -0.445253 0.710424 0.464608 0.358666 0.426210 -0.883588 0.162780 -0.138143 0.451609 -0.259325 -0.452243 0.095592 0.029265 1.163891 0.030606 -0.011017 0.438217 0.079581 0.749075 -0.308646 0.088405 -0.553034 0.701615 -0.415141 0.238480 -0.051640 0.363963 0.157620 -0.119889 -0.349156 0.104456 -0.106277 0.346353 -0.326680 -0.257492 -0.119552 -0.278259 -0.240515 0.070264 -0.056193
理 -0.175732 -0.292264 0.663918 -0.603220 -0.487306 0.753183 -0.584821 -0.539715 -0.237250 0.937016 0.281032 -0.785296 0.276598 0.154488 -0.572082 -0.031994 -0.355020 0.086442 0.198402 -1.416653 0.574206 -0.710604 -0.195788 -0.011179 0.393038 -0.166173 -0.118397 -0.239385 0.020323 0.141281 -0.047672 0.303752 0.103415 0.189009 -0.043686 0.390000 0.793921 0.079845 0.562894 0.376245 -0.543393 -0.061882 -0.585150 -0.329035 -1.007345 -0.227711 -0.765720 0.255877 -0.020064 -0.325013 -0.136097 0.401284 -0.087796 -0.502846 0.132168 -0.349786 -0.589929 0.678065 -0.307540 -0.309105 0.231970 -0.164402 -0.549075 -0.361610 -0.427322 -1.246803 -0.707242 -0.188114 0.103015 0.379713 0.001306 -0.479435 1.004150 -0.080913 -0.428998 0.576708 0.852853 0.104681 0.120382 0.327969 -0.305388 -0.163598 0.967718 0.698556 0.574623 -0.479254 0.176861 -0.432789 0.104123 -1.092278 0.149696 0.181074 0.619706 0.014782 -1.250187 -0.288705 0.278140 -0.494105 -0.144872 -0.371231
r -0.443811 -0.130326 -0.005956 0.370811 -0.397577 0.366502 0.600399 0.041039 -0.332472 0.236024 -0.071884 0.693532 -1.064727 -1.004189 -0.687195 -0.031103 0.748287 0.075366 -0.498929 0.335354 0.338217 0.219625 -0.280127 0.207634 -0.023074 -0.075468 0.091236 0.695493 0.337111 0.074347 -0.881648 0.180715 0.256444 0.649354 1.004311 -0.551796 0.053017 -0.413607 0.491343 0.530598 0.490487 0.524041 -0.088868 -0.392689 -0.618037 -0.551421 -0.732854 -0.618134 0.169765 -1.008138 -0.326017 -0.186859 0.168286 0.689360 0.001032 -0.408077 0.425536 -0.476998 -0.588977 0.660596 0.413442 1.205540 0.012170 -0.108757 0.508440 -0.650885 0.350777 -0.400598 -0.245157 0.131118 -0.367913 -0.965248 0.289757 -0.372961 0.302654 -0.696966 0.400944 1.006432 -0.128425 0.629853 0.220192 -0.084907 0.120881 0.594576 0.929271 -0.677067 0.123543 -0.125540 0.373013 0.113173 -0.444581 -0.190247 0.248477 0.603038 -0.405712 0.080520 0.315551 0.136820 0.730900 0.002460
要 0.604592 0.019335 -0.209677 -0.181614 -0.202086 0.227849 -0.935216 -0.601023 0.465002 -0.088503 -0.026257 -0.528963 -0.264288 0.101743 -0.763179 0.380984 0.213206 -0.876416 0.439934 -0.200737 0.150690 0.167942 -0.216959 -0.863021 0.340273 0.658589 0.228905 -0.944122 -0.050605 0.125507 -0.457743 -0.431798 -0.267952 0.348276 0.481496 0.392880 -0.270641 0.359831 0.374727 0.292751 -0.444301 0.149473 -0.392546 -0.676846 -0.019155 -0.413651 -0.154924 -0.160078 -0.400294 0.156880 -0.812139 0.097657 0.225601 0.536962 -0.313286 0.011524 0.228266 -0.050282 0.458173 -0.073276 0.228587 0.254799 0.184464 -0.204542 0.117637 -0.481670 -0.063642 0.218811 0.327789 -0.936065 -0.841846 0.196831 0.481168 0.209993 -0.002006 -0.587039 0.697857 -0.292957 -0.284559 0.325487 -0.348241 -0.327313 0.238918 -0.046852 0.020286 -0.298039 0.269007 0.065547 0.008848 0.229427 0.329780 0.186104 0.288991 -0.030076 -0.227859 0.113683 0.144525 0.303060 -0.048123 -0.129511
斯 -0.549960 -0.065013 -0.248624 -0.175135 -0.347366 0.537023 -0.307802 -0.169323 0.253464 -0.830343 -0.409343 0.048453 -0.549796 -0.952162 -0.132794 0.223899 1.136284 0.009374 -1.485715 1.033254 0.470277 -0.422576 -0.699054 -0.794630 -0.308669 0.211750 1.190618 0.065241 0.328916 0.311601 0.427690 -0.127068 -0.512140 -0.881597 0.282630 -0.494475 1.096729 0.889021 -0.103235 0.088837 -0.339438 0.541305 -0.161168 -0.237648 -0.335140 -0.278882 -0.356273 -0.327412 0.133344 0.450017 -1.309750 0.049225 0.854071 -0.075301 -0.194562 -0.312428 -0.129636 -0.281991 0.133552 0.153879 0.196967 0.360718 -0.257905 0.311552 0.392027 -0.249464 0.535403 0.629702 -0.297457 0.200439 0.302123 -0.536015 -0.973508 0.266968 0.420544 -0.156050 0.589543 -0.265977 -0.517094 -0.020814 -0.259861 0.108628 0.222039 -0.466042 0.431340 -0.126963 -0.097345 -0.242047 -0.132038 -0.594583 -0.337350 -0.331440 -0.775339 -0.627108 -0.635156 0.053704 -0.038120 0.127519 -0.098311 -0.451135
方 0.196533 -0.291483 -0.109957 0.699415 0.223525 -0.211995 -0.076113 -1.014089 0.122954 -0.013372 0.139689 -0.355192 -0.416482 0.002945 -0.464495 0.213496 0.189373 0.216784 0.535554 -0.489673 -0.064545 -0.263665 -0.151842 -0.540989 0.545260 0.110881 -0.081134 -0.081008 0.250365 0.066520 0.256966 -0.297921 -0.594406 0.243348 -0.374520 0.079026 0.313569 -0.238188 0.483265 -0.327218 0.174261 -0.313740 -0.450013 -0.852313 0.366447 -0.310047 -0.122978 0.236351 0.135644 -0.293485 -0.253509 -0.367539 -0.197824 0.908240 0.853810 0.325271 -0.083943 0.018244 1.084110 0.165592 0.245096 -1.038721 0.266349 -0.354150 -0.140431 -1.014370 -0.083354 0.044822 -0.305795 -0.449832 0.463960 0.110402 0.354173 0.469319 0.310475 -0.595122 0.407968 0.674449 0.041986 0.508670 -0.368390 -0.649953 0.096549 0.303606 0.284992 -0.213340 0.595103 -0.447016 0.504369 -0.649076 -0.399129 0.023226 0.067070 0.002300 -1.045561 0.340757 0.430168 -0.400567 -0.077885 -0.293771
房 0.231008 -0.427250 0.801109 -0.822445 -0.356281 -0.239825 -0.218122 -0.490661 0.065080 0.760587 -0.206157 -1.141990 0.358565 -0.018078 -0.382776 -0.627636 -1.001429 -0.426905 0.441002 -0.983319 0.969119 -0.285328 -0.679776 -0.487118 -0.412396 0.498667 0.844532 -0.004099 0.206233 -0.444528 -0.118404 -0.532698 -0.109638 -0.035278 0.234624 0.878626 -0.294142 0.514786 -0.348756 -0.024018 -0.675890 -0.117389 -0.058368 -1.007784 -0.785271 0.860760 -0.695909 -0.638928 -0.699160 -0.214338 0.435082 -0.119791 0.507895 0.135237 0.538420 0.316118 -1.214963 0.745815 0.309423 -0.686109 -0.052672 -0.283262 0.116658 0.623326 0.282699 0.099345 -0.170240 -0.797639 0.053093 -0.111875 0.254177 0.143102 0.281204 0.134913 0.132796 -0.228458 0.048669 0.392765 0.240048 0.307433 -0.255288 0.573364 0.377655 0.361564 0.303697 0.334240 1.046811 -0.069673 -0.715519 -0.131823 0.431598 0.888356 0.434007 0.257975 -0.351918 -0.501924 0.176709 -0.946347 -0.594201 0.263849
（ -0.136794 -0.306004 0.522721 0.572608 0.763731 1.170656 0.373253 -0.175740 0.155715 0.159723 -0.055412 -0.236819 0.181349 -0.981967 -0.122131 -0.088563 0.722413 0.025323 -0.445610 0.720059 -0.129181 -0.374540 -0.458803 0.029450 -1.186759 0.025380 -0.013787 0.894776 0.110728 0.152742 -0.147247 0.173719 -0.373755 0.274088 0.252509 -0.436620 1.036304 -0.257814 -0.390414 0.838391 -0.435272 0.002544 0.788202 -0.842820 -0.272719 0.329728 -0.093314 -0.119793 0.308208 -1.082182 0.244263 -0.416164 0.327628 -0.105454 0.623045 -0.126309 -0.039292 -0.005049 -0.645411 0.456588 0.017796 0.295322 -0.173249 0.089846 0.741464 -0.384727 -0.211598 -0.378848 -0.357249 0.290061 0.007858 -1.136480 0.165642 0.229957 0.562058 0.243609 0.718861 0.621390 -0.037837 0.763253 -0.190358 -0.374572 0.735718 0.597551 0.746652 -0.414224 0.323550 -0.076571 0.322166 0.066971 -0.526510 -0.426212 -0.219937 0.174177 -0.123320 -0.325889 0.410459 -0.031849 0.730892 -0.037838
军 0.492237 -0.566849 -0.170818 0.683296 -0.264111 -0.507566 -0.169614 -1.124732 0.013225 -0.277333 -0.407862 -0.078262 -0.853537 -0.621350 -0.190473 0.956527 0.990949 -0.420561 -0.002027 0.299437 0.002904 0.042801 0.134537 -0.343611 -0.265703 -0.155196 0.119163 0.119774 0.555331 0.077474 0.300968 0.361116 -0.223443 0.890726 0.158980 -0.161389 0.347601 -0.419388 -0.495096 0.441061 -0.134568 0.721239 -0.298710 -0.109302 -0.486145 -0.532937 -0.475829 0.937757 -0.656175 0.780316 -0.406387 -0.922018 -0.303300 0.246987 0.101606 -0.109821 -0.372461 0.369341 0.913975 -0.551982 -0.343920 -0.067384 0.221109 -0.153020 0.795162 0.054338 0.357997 -0.239157 0.204324 0.605614 -0.089500 -0.161530 -0.401294 -0.056891 -0.247123 0.069998 0.770770 -0.058949 -0.922609 -0.139125 -0.044747 -0.337758 0.042923 -0.781400 0.057687 -0.372761 0.159120 -0.570722 -0.092461 -0.737961 -0.128205 0.526977 -1.230532 0.447987 -1.375275 0.414819 -0.494198 -0.549878 0.073881 -0.093599
8 0.480324 -0.059113 -0.201091 0.188035 -0.026139 0.099883 -0.674515 -0.848425 0.887234 0.222525 0.077294 0.480172 -0.307443 -0.651378 -0.947210 0.550606 0.431465 -0.042168 -0.891018 -0.301916 0.396057 0.478082 0.118386 -0.498512 -0.184086 -0.183031 0.445293 0.375822 0.669005 0.490887 0.654275 0.287426 0.578886 -0.110324 0.172704 -0.026234 0.295091 0.118464 -0.841653 0.696216 -0.017045 -0.327610 0.502160 -0.888395 0.208791 1.056024 -0.111557 0.221250 0.111480 -0.521739 0.143215 0.314081 0.323490 0.118193 -0.069422 0.113553 -0.153456 0.124145 0.212941 -0.311444 -0.162939 -0.299511 0.330221 0.609522 -0.034878 -0.411801 -0.202848 0.061389 0.733615 -0.352599 0.046619 -0.310938 0.047039 -0.127780 0.738310 -0.716067 -0.260622 0.108077 0.390508 0.642827 -0.001027 -0.593777 0.306222 -0.445950 0.999443 -0.168545 0.418482 0.025522 -0.078443 0.759810 -0.311770 -0.490929 -0.254770 0.858944 -0.256830 0.525782 -0.383508 -0.704896 0.137013 0.257735
平 0.076355 -1.041429 0.273100 0.087563 0.141923 0.212595 -0.356812 -0.764284 0.086804 0.277862 0.008334 0.652198 -0.556663 -0.023788 -1.483486 0.101835 0.441581 0.387541 -0.383158 -0.491413 0.897033 -0.598062 0.048145 -1.042036 0.097654 0.004598 -0.686244 -0.342855 0.016584 0.101692 1.197472 0.013276 0.039076 0.237677 -0.264481 1.001227 -0.334805 0.150587 -0.226560 0.083975 -0.197119 -0.047553 0.129345 -0.606011 0.601173 0.206456 -0.213010 0.177796 -0.271947 -0.559855 -0.490840 0.884787 -0.092152 0.502299 1.198403 0.842654 -0.650357 0.078269 0.877013 -0.392638 0.226529 0.520393 -0.263421 0.812446 0.221447 0.010075 0.009667 0.472448 0.018417 -0.232187 -0.493794 -0.483830 -0.574189 0.266987 0.825320 -0.805900 -0.054799 0.557670 0.815041 0.496960 -0.086286 -0.245629 0.192331 -1.019054 -0.173575 -0.476853 -0.199705 -0.172226 0.123918 -0.050680 -0.370144 -0.803119 0.345001 -0.426374 0.206541 0.832744 0.081683 -0.813856 -0.128406 0.124826
